function score_infection_score(input) {
    var var0;
    if (input[20] <= 3242.5) {
        if (input[21] <= 9.5) {
            if (input[20] <= 2565.0) {
                if (input[22] <= 26.5) {
                    if (input[0] <= 12.5) {
                        var0 = -0.040164818189016176;
                    } else {
                        var0 = 0.0019596390111342424;
                    }
                } else {
                    if (input[22] <= 36.5) {
                        var0 = -0.11262456937498644;
                    } else {
                        var0 = -0.07507179214661097;
                    }
                }
            } else {
                if (input[20] <= 3102.0) {
                    if (input[22] <= 23.5) {
                        var0 = -0.09385907429943126;
                    } else {
                        var0 = -0.13130143254198187;
                    }
                } else {
                    if (input[26] <= 0.5) {
                        var0 = -0.0902008728205282;
                    } else {
                        var0 = -0.04152985501619785;
                    }
                }
            }
        } else {
            if (input[23] <= 0.5) {
                if (input[22] <= 27.5) {
                    if (input[19] <= 35.0) {
                        var0 = 0.02205137546976131;
                    } else {
                        var0 = -0.07255790351500464;
                    }
                } else {
                    if (input[21] <= 12.5) {
                        var0 = -0.14239280320103728;
                    } else {
                        var0 = -0.10647938355746774;
                    }
                }
            } else {
                if (input[1] <= 0.5) {
                    if (input[19] <= 39.5) {
                        var0 = -0.02203964591361681;
                    } else {
                        var0 = -0.06516711748635785;
                    }
                } else {
                    if (input[20] <= 3055.0) {
                        var0 = -0.012430829684230513;
                    } else {
                        var0 = 0.01423314262724003;
                    }
                }
            }
        }
    } else {
        if (input[23] <= 0.5) {
            if (input[0] <= 11.5) {
                if (input[20] <= 3317.5) {
                    if (input[21] <= 6.0) {
                        var0 = -0.1264057666048065;
                    } else {
                        var0 = -0.053521709453246406;
                    }
                } else {
                    if (input[19] <= 40.5) {
                        var0 = -0.004660206855706039;
                    } else {
                        var0 = -0.03808310891504491;
                    }
                }
            } else {
                if (input[22] <= 23.5) {
                    if (input[19] <= 40.5) {
                        var0 = -0.02589504054314825;
                    } else {
                        var0 = -0.06069392649400026;
                    }
                } else {
                    if (input[22] <= 38.5) {
                        var0 = -0.08256275116054787;
                    } else {
                        var0 = -0.029745969755046408;
                    }
                }
            }
        } else {
            if (input[21] <= 6.5) {
                if (input[1] <= 0.5) {
                    if (input[22] <= 17.5) {
                        var0 = -0.013658812395133831;
                    } else {
                        var0 = -0.06347321783155507;
                    }
                } else {
                    if (input[22] <= 37.5) {
                        var0 = -0.02374379642281065;
                    } else {
                        var0 = 0.03818764714356578;
                    }
                }
            } else {
                if (input[0] <= 10.5) {
                    if (input[22] <= 34.5) {
                        var0 = 0.023327312546629727;
                    } else {
                        var0 = 0.05295053767367228;
                    }
                } else {
                    if (input[1] <= 0.5) {
                        var0 = -0.023020296531869672;
                    } else {
                        var0 = 0.010385986151410896;
                    }
                }
            }
        }
    }
    var var1;
    if (input[20] <= 3186.5) {
        if (input[23] <= 0.5) {
            if (input[22] <= 25.5) {
                if (input[20] <= 2430.0) {
                    if (input[0] <= 13.5) {
                        var1 = -0.035398944955649124;
                    } else {
                        var1 = 0.014831215312296225;
                    }
                } else {
                    if (input[0] <= 12.5) {
                        var1 = -0.10901922545139785;
                    } else {
                        var1 = -0.07631548998178933;
                    }
                }
            } else {
                if (input[20] <= 2532.0) {
                    if (input[22] <= 40.5) {
                        var1 = -0.1066283281574534;
                    } else {
                        var1 = -0.07026424814976864;
                    }
                } else {
                    if (input[20] <= 3065.0) {
                        var1 = -0.15732859291669096;
                    } else {
                        var1 = -0.10433793670342174;
                    }
                }
            }
        } else {
            if (input[21] <= 9.5) {
                if (input[20] <= 2540.0) {
                    if (input[22] <= 25.5) {
                        var1 = -0.007478306375670745;
                    } else {
                        var1 = -0.0671719629444967;
                    }
                } else {
                    if (input[21] <= 7.5) {
                        var1 = -0.12055161963933383;
                    } else {
                        var1 = -0.0756479152898238;
                    }
                }
            } else {
                if (input[20] <= 2408.0) {
                    if (input[22] <= 26.5) {
                        var1 = 0.03657085074837746;
                    } else {
                        var1 = -0.01081650172709227;
                    }
                } else {
                    if (input[1] <= 0.5) {
                        var1 = -0.046613573531913054;
                    } else {
                        var1 = -0.014101852631326578;
                    }
                }
            }
        }
    } else {
        if (input[23] <= 0.5) {
            if (input[0] <= 11.5) {
                if (input[20] <= 3356.5) {
                    if (input[19] <= 41.5) {
                        var1 = -0.049424941452196024;
                    } else {
                        var1 = -0.16231357106594496;
                    }
                } else {
                    if (input[19] <= 40.5) {
                        var1 = -0.0016856737018890646;
                    } else {
                        var1 = -0.042658169393699284;
                    }
                }
            } else {
                if (input[22] <= 23.5) {
                    if (input[20] <= 3350.0) {
                        var1 = -0.06308487384522472;
                    } else {
                        var1 = -0.022524272830784946;
                    }
                } else {
                    if (input[22] <= 36.5) {
                        var1 = -0.08609572358187877;
                    } else {
                        var1 = -0.04002989695843556;
                    }
                }
            }
        } else {
            if (input[21] <= 6.5) {
                if (input[1] <= 0.5) {
                    if (input[20] <= 3305.0) {
                        var1 = -0.08997959031506203;
                    } else {
                        var1 = -0.043883926408765234;
                    }
                } else {
                    if (input[19] <= 40.5) {
                        var1 = -0.00790972178550776;
                    } else {
                        var1 = -0.04216452468140483;
                    }
                }
            } else {
                if (input[0] <= 10.5) {
                    if (input[20] <= 3272.5) {
                        var1 = -0.017582251071294037;
                    } else {
                        var1 = 0.026152122624086373;
                    }
                } else {
                    if (input[26] <= 0.5) {
                        var1 = -0.024132432933834887;
                    } else {
                        var1 = 0.010409801398512847;
                    }
                }
            }
        }
    }
    var var2;
    if (input[20] <= 3186.5) {
        if (input[23] <= 0.5) {
            if (input[22] <= 24.5) {
                if (input[20] <= 2527.5) {
                    if (input[0] <= 12.5) {
                        var2 = -0.048079791314634135;
                    } else {
                        var2 = 0.0030279270342664375;
                    }
                } else {
                    if (input[0] <= 12.5) {
                        var2 = -0.11088759478112813;
                    } else {
                        var2 = -0.07354848183988294;
                    }
                }
            } else {
                if (input[20] <= 2637.5) {
                    if (input[22] <= 25.5) {
                        var2 = -0.021960074335096013;
                    } else {
                        var2 = -0.10413905948163522;
                    }
                } else {
                    if (input[20] <= 3065.0) {
                        var2 = -0.16373491731207004;
                    } else {
                        var2 = -0.1122182674496458;
                    }
                }
            }
        } else {
            if (input[21] <= 9.5) {
                if (input[20] <= 2465.0) {
                    if (input[22] <= 24.5) {
                        var2 = 0.0019234842075750158;
                    } else {
                        var2 = -0.07120972614537233;
                    }
                } else {
                    if (input[21] <= 7.5) {
                        var2 = -0.11784591778696392;
                    } else {
                        var2 = -0.0750076322222661;
                    }
                }
            } else {
                if (input[1] <= 0.5) {
                    if (input[19] <= 37.5) {
                        var2 = 0.0004435794340631805;
                    } else {
                        var2 = -0.04541315730464202;
                    }
                } else {
                    if (input[20] <= 3067.5) {
                        var2 = -0.015056344091471113;
                    } else {
                        var2 = 0.017424788222009737;
                    }
                }
            }
        }
    } else {
        if (input[23] <= 0.5) {
            if (input[0] <= 11.5) {
                if (input[20] <= 3337.5) {
                    if (input[20] <= 3285.5) {
                        var2 = -0.08120506689283273;
                    } else {
                        var2 = -0.04308517531379405;
                    }
                } else {
                    if (input[22] <= 38.0) {
                        var2 = -0.01647669311048141;
                    } else {
                        var2 = 0.03786399842817333;
                    }
                }
            } else {
                if (input[22] <= 23.5) {
                    if (input[20] <= 3375.0) {
                        var2 = -0.05250485404519349;
                    } else {
                        var2 = -0.0273139641722572;
                    }
                } else {
                    if (input[22] <= 37.5) {
                        var2 = -0.08314798783036749;
                    } else {
                        var2 = -0.03274828141788147;
                    }
                }
            }
        } else {
            if (input[21] <= 7.5) {
                if (input[1] <= 0.5) {
                    if (input[24] <= 0.5) {
                        var2 = -0.0489834564277531;
                    } else {
                        var2 = 0.008289630102007992;
                    }
                } else {
                    if (input[22] <= 39.5) {
                        var2 = -0.020265612823216428;
                    } else {
                        var2 = 0.05061868688028835;
                    }
                }
            } else {
                if (input[0] <= 10.5) {
                    if (input[18] <= 0.5) {
                        var2 = 0.017941462866900057;
                    } else {
                        var2 = 0.04653117240801372;
                    }
                } else {
                    if (input[25] <= 0.5) {
                        var2 = 0.007266792587350699;
                    } else {
                        var2 = -0.022750115982637698;
                    }
                }
            }
        }
    }
    var var3;
    if (input[20] <= 3252.5) {
        if (input[23] <= 0.5) {
            if (input[22] <= 25.5) {
                if (input[20] <= 2652.5) {
                    if (input[20] <= 2332.5) {
                        var3 = 0.0021939154061425357;
                    } else {
                        var3 = -0.047777584431634976;
                    }
                } else {
                    if (input[20] <= 3062.5) {
                        var3 = -0.11323294552113206;
                    } else {
                        var3 = -0.0694243509841508;
                    }
                }
            } else {
                if (input[20] <= 3065.0) {
                    if (input[20] <= 2635.0) {
                        var3 = -0.10961406916925553;
                    } else {
                        var3 = -0.1640786029929151;
                    }
                } else {
                    if (input[0] <= 9.5) {
                        var3 = -0.05851899153792763;
                    } else {
                        var3 = -0.1096279786501735;
                    }
                }
            }
        } else {
            if (input[21] <= 9.5) {
                if (input[20] <= 2495.0) {
                    if (input[22] <= 27.0) {
                        var3 = -0.005538101083170874;
                    } else {
                        var3 = -0.07271589282188744;
                    }
                } else {
                    if (input[20] <= 3111.0) {
                        var3 = -0.10037341492046735;
                    } else {
                        var3 = -0.05465809146276326;
                    }
                }
            } else {
                if (input[1] <= 0.5) {
                    if (input[19] <= 39.5) {
                        var3 = -0.027938184920789595;
                    } else {
                        var3 = -0.0614659914575173;
                    }
                } else {
                    if (input[20] <= 2230.0) {
                        var3 = 0.028638244742692345;
                    } else {
                        var3 = -0.010747096848096811;
                    }
                }
            }
        }
    } else {
        if (input[23] <= 0.5) {
            if (input[0] <= 11.5) {
                if (input[21] <= 6.5) {
                    if (input[22] <= 21.0) {
                        var3 = -0.027208376391288387;
                    } else {
                        var3 = -0.0718299762402337;
                    }
                } else {
                    if (input[20] <= 3342.5) {
                        var3 = -0.0466521681621509;
                    } else {
                        var3 = -0.01186131352182013;
                    }
                }
            } else {
                if (input[22] <= 23.5) {
                    if (input[12] <= 2.5) {
                        var3 = -0.021360779878210317;
                    } else {
                        var3 = -0.055423814996868666;
                    }
                } else {
                    if (input[22] <= 38.5) {
                        var3 = -0.0777650474957422;
                    } else {
                        var3 = -0.0291305276665954;
                    }
                }
            }
        } else {
            if (input[21] <= 7.5) {
                if (input[26] <= 0.5) {
                    if (input[0] <= 14.5) {
                        var3 = -0.02781932101691335;
                    } else {
                        var3 = -0.07356516254859065;
                    }
                } else {
                    if (input[22] <= 37.5) {
                        var3 = -0.013127726677273743;
                    } else {
                        var3 = 0.038349439960965105;
                    }
                }
            } else {
                if (input[0] <= 10.5) {
                    if (input[22] <= 37.5) {
                        var3 = 0.02068474374437189;
                    } else {
                        var3 = 0.06023788607018904;
                    }
                } else {
                    if (input[26] <= 0.5) {
                        var3 = -0.021921518686333272;
                    } else {
                        var3 = 0.00995952122221559;
                    }
                }
            }
        }
    }
    var var4;
    if (input[20] <= 3299.5) {
        if (input[23] <= 0.5) {
            if (input[22] <= 25.5) {
                if (input[20] <= 2534.5) {
                    if (input[0] <= 12.5) {
                        var4 = -0.0418962373294995;
                    } else {
                        var4 = 0.008553525644332772;
                    }
                } else {
                    if (input[20] <= 3115.0) {
                        var4 = -0.10194594427556013;
                    } else {
                        var4 = -0.06681134250836632;
                    }
                }
            } else {
                if (input[20] <= 3077.5) {
                    if (input[20] <= 2532.0) {
                        var4 = -0.1004608365923378;
                    } else {
                        var4 = -0.16312690767591456;
                    }
                } else {
                    if (input[0] <= 7.5) {
                        var4 = -0.013504055624274295;
                    } else {
                        var4 = -0.10100310294411916;
                    }
                }
            }
        } else {
            if (input[21] <= 7.5) {
                if (input[19] <= 36.5) {
                    if (input[22] <= 25.5) {
                        var4 = -0.021701428756160015;
                    } else {
                        var4 = -0.0876602747539616;
                    }
                } else {
                    if (input[20] <= 3155.0) {
                        var4 = -0.11892819352539687;
                    } else {
                        var4 = -0.07010649811584511;
                    }
                }
            } else {
                if (input[21] <= 9.5) {
                    if (input[20] <= 2350.0) {
                        var4 = -0.008445863651615213;
                    } else {
                        var4 = -0.062214363290757003;
                    }
                } else {
                    if (input[1] <= 0.5) {
                        var4 = -0.03433591726556185;
                    } else {
                        var4 = -0.0027155753496352192;
                    }
                }
            }
        }
    } else {
        if (input[23] <= 0.5) {
            if (input[0] <= 12.5) {
                if (input[22] <= 19.5) {
                    if (input[20] <= 3985.5) {
                        var4 = 0.011461395288023896;
                    } else {
                        var4 = -0.05009889479527547;
                    }
                } else {
                    if (input[22] <= 36.5) {
                        var4 = -0.035173442738635076;
                    } else {
                        var4 = 0.0029028338724133677;
                    }
                }
            } else {
                if (input[22] <= 23.5) {
                    if (input[19] <= 40.5) {
                        var4 = -0.02416635291088635;
                    } else {
                        var4 = -0.06146132552988616;
                    }
                } else {
                    if (input[22] <= 36.5) {
                        var4 = -0.08298971965925796;
                    } else {
                        var4 = -0.04031653463629894;
                    }
                }
            }
        } else {
            if (input[21] <= 7.5) {
                if (input[25] <= 0.5) {
                    if (input[22] <= 37.5) {
                        var4 = -0.01497659670998368;
                    } else {
                        var4 = 0.0276035302955958;
                    }
                } else {
                    if (input[1] <= 0.5) {
                        var4 = -0.0658825127683891;
                    } else {
                        var4 = -0.02547254743597393;
                    }
                }
            } else {
                if (input[22] <= 36.5) {
                    if (input[0] <= 10.5) {
                        var4 = 0.01866383268034629;
                    } else {
                        var4 = -0.006268241715996982;
                    }
                } else {
                    if (input[20] <= 3792.5) {
                        var4 = 0.057835528300489616;
                    } else {
                        var4 = 0.022716004924432816;
                    }
                }
            }
        }
    }
    var var5;
    if (input[20] <= 3257.5) {
        if (input[23] <= 0.5) {
            if (input[22] <= 25.5) {
                if (input[20] <= 2430.0) {
                    if (input[0] <= 14.5) {
                        var5 = -0.027596806487301877;
                    } else {
                        var5 = 0.023276813149161597;
                    }
                } else {
                    if (input[0] <= 12.5) {
                        var5 = -0.10847108397780622;
                    } else {
                        var5 = -0.07003063678775787;
                    }
                }
            } else {
                if (input[20] <= 3107.5) {
                    if (input[20] <= 2635.0) {
                        var5 = -0.10529344882944588;
                    } else {
                        var5 = -0.15694228658397846;
                    }
                } else {
                    if (input[0] <= 12.5) {
                        var5 = -0.07394118456295067;
                    } else {
                        var5 = -0.11264080038868905;
                    }
                }
            }
        } else {
            if (input[21] <= 8.5) {
                if (input[20] <= 2470.0) {
                    if (input[22] <= 25.5) {
                        var5 = -0.002894352812460243;
                    } else {
                        var5 = -0.08146779388178088;
                    }
                } else {
                    if (input[20] <= 3167.5) {
                        var5 = -0.10598755584683814;
                    } else {
                        var5 = -0.048377082696715853;
                    }
                }
            } else {
                if (input[21] <= 9.5) {
                    if (input[20] <= 2427.5) {
                        var5 = -0.0048786749584556624;
                    } else {
                        var5 = -0.0638035516488827;
                    }
                } else {
                    if (input[20] <= 2410.0) {
                        var5 = 0.011055160204869909;
                    } else {
                        var5 = -0.027505054725767974;
                    }
                }
            }
        }
    } else {
        if (input[23] <= 0.5) {
            if (input[0] <= 11.5) {
                if (input[22] <= 19.5) {
                    if (input[14] <= 0.5) {
                        var5 = 0.018998454216597644;
                    } else {
                        var5 = -0.07477026725539504;
                    }
                } else {
                    if (input[22] <= 36.5) {
                        var5 = -0.032950591769843926;
                    } else {
                        var5 = 0.011645428484820575;
                    }
                }
            } else {
                if (input[22] <= 23.5) {
                    if (input[19] <= 40.5) {
                        var5 = -0.021979076791263583;
                    } else {
                        var5 = -0.06381235272156535;
                    }
                } else {
                    if (input[22] <= 36.5) {
                        var5 = -0.08290462643019311;
                    } else {
                        var5 = -0.035201525273590675;
                    }
                }
            }
        } else {
            if (input[21] <= 7.5) {
                if (input[22] <= 25.5) {
                    if (input[25] <= 0.5) {
                        var5 = 0.010457919711796394;
                    } else {
                        var5 = -0.028511975509330458;
                    }
                } else {
                    if (input[1] <= 0.5) {
                        var5 = -0.059623196940427746;
                    } else {
                        var5 = -0.02055529745203876;
                    }
                }
            } else {
                if (input[22] <= 36.5) {
                    if (input[0] <= 10.5) {
                        var5 = 0.018426295261645666;
                    } else {
                        var5 = -0.006263815264605094;
                    }
                } else {
                    if (input[0] <= 6.5) {
                        var5 = 0.07886052623470054;
                    } else {
                        var5 = 0.0395802842866171;
                    }
                }
            }
        }
    }
    var var6;
    if (input[20] <= 3267.5) {
        if (input[23] <= 0.5) {
            if (input[22] <= 25.5) {
                if (input[20] <= 2430.0) {
                    if (input[0] <= 13.5) {
                        var6 = -0.03623216803997647;
                    } else {
                        var6 = 0.01065140597576209;
                    }
                } else {
                    if (input[20] <= 3112.5) {
                        var6 = -0.09774423640598613;
                    } else {
                        var6 = -0.0653515503006396;
                    }
                }
            } else {
                if (input[20] <= 3077.5) {
                    if (input[20] <= 2635.0) {
                        var6 = -0.11009017316012067;
                    } else {
                        var6 = -0.159416769910922;
                    }
                } else {
                    if (input[0] <= 9.5) {
                        var6 = -0.07452177080362549;
                    } else {
                        var6 = -0.11042973821739825;
                    }
                }
            }
        } else {
            if (input[21] <= 9.5) {
                if (input[21] <= 7.5) {
                    if (input[20] <= 2495.0) {
                        var6 = -0.03981144058619577;
                    } else {
                        var6 = -0.10603935586163322;
                    }
                } else {
                    if (input[20] <= 2345.0) {
                        var6 = -0.01728510293100939;
                    } else {
                        var6 = -0.0637653996373485;
                    }
                }
            } else {
                if (input[1] <= 0.5) {
                    if (input[22] <= 27.5) {
                        var6 = -0.018727717055050257;
                    } else {
                        var6 = -0.0458265750243383;
                    }
                } else {
                    if (input[20] <= 3182.5) {
                        var6 = -0.008365451035679705;
                    } else {
                        var6 = 0.02258944942020749;
                    }
                }
            }
        }
    } else {
        if (input[23] <= 0.5) {
            if (input[0] <= 11.5) {
                if (input[22] <= 37.5) {
                    if (input[22] <= 18.5) {
                        var6 = 0.008553768527944722;
                    } else {
                        var6 = -0.03044569363049283;
                    }
                } else {
                    if (input[21] <= 8.0) {
                        var6 = -0.008780205809037968;
                    } else {
                        var6 = 0.027774286712168653;
                    }
                }
            } else {
                if (input[22] <= 23.5) {
                    if (input[19] <= 40.5) {
                        var6 = -0.022398886939249935;
                    } else {
                        var6 = -0.05555078236079515;
                    }
                } else {
                    if (input[22] <= 36.5) {
                        var6 = -0.08141992935192109;
                    } else {
                        var6 = -0.03351684788755694;
                    }
                }
            }
        } else {
            if (input[21] <= 6.5) {
                if (input[19] <= 39.5) {
                    if (input[20] <= 3587.0) {
                        var6 = -0.039205821475580216;
                    } else {
                        var6 = 0.009267644511146134;
                    }
                } else {
                    if (input[26] <= 0.5) {
                        var6 = -0.06306154938401098;
                    } else {
                        var6 = -0.03249877396394934;
                    }
                }
            } else {
                if (input[0] <= 10.5) {
                    if (input[20] <= 3892.5) {
                        var6 = 0.031505461767590996;
                    } else {
                        var6 = 0.0009251063602610206;
                    }
                } else {
                    if (input[25] <= 0.5) {
                        var6 = 0.006861801474958156;
                    } else {
                        var6 = -0.020870395024541955;
                    }
                }
            }
        }
    }
    var var7;
    if (input[20] <= 3252.5) {
        if (input[23] <= 0.5) {
            if (input[22] <= 25.5) {
                if (input[20] <= 2539.5) {
                    if (input[0] <= 14.5) {
                        var7 = -0.03617391404031065;
                    } else {
                        var7 = 0.01012938184573926;
                    }
                } else {
                    if (input[20] <= 3109.5) {
                        var7 = -0.10274936163266792;
                    } else {
                        var7 = -0.05753074371710832;
                    }
                }
            } else {
                if (input[21] <= 8.5) {
                    if (input[20] <= 2512.5) {
                        var7 = -0.12018662102885994;
                    } else {
                        var7 = -0.16112860586321653;
                    }
                } else {
                    if (input[20] <= 3107.5) {
                        var7 = -0.12402097973228718;
                    } else {
                        var7 = -0.09249762073953119;
                    }
                }
            }
        } else {
            if (input[21] <= 9.5) {
                if (input[20] <= 2482.5) {
                    if (input[22] <= 25.5) {
                        var7 = -0.0012747934707462506;
                    } else {
                        var7 = -0.07257849653152171;
                    }
                } else {
                    if (input[21] <= 7.5) {
                        var7 = -0.10686110705666327;
                    } else {
                        var7 = -0.06915875667320918;
                    }
                }
            } else {
                if (input[1] <= 0.5) {
                    if (input[19] <= 39.5) {
                        var7 = -0.0281408412493614;
                    } else {
                        var7 = -0.06705948837645387;
                    }
                } else {
                    if (input[20] <= 3138.5) {
                        var7 = -0.009275243710669795;
                    } else {
                        var7 = 0.02257205225524629;
                    }
                }
            }
        }
    } else {
        if (input[23] <= 0.5) {
            if (input[0] <= 11.5) {
                if (input[19] <= 40.5) {
                    if (input[22] <= 37.5) {
                        var7 = -0.014748015105606967;
                    } else {
                        var7 = 0.02814987328416339;
                    }
                } else {
                    if (input[21] <= 7.5) {
                        var7 = -0.10127022465221018;
                    } else {
                        var7 = -0.04309298063891532;
                    }
                }
            } else {
                if (input[22] <= 23.5) {
                    if (input[19] <= 40.5) {
                        var7 = -0.027748730878083966;
                    } else {
                        var7 = -0.06327097236801389;
                    }
                } else {
                    if (input[22] <= 38.5) {
                        var7 = -0.0788019141000376;
                    } else {
                        var7 = -0.025867233770601333;
                    }
                }
            }
        } else {
            if (input[21] <= 6.5) {
                if (input[26] <= 0.5) {
                    if (input[1] <= 0.5) {
                        var7 = -0.07500721085164318;
                    } else {
                        var7 = -0.041787126346614835;
                    }
                } else {
                    if (input[22] <= 37.0) {
                        var7 = -0.02264335255338676;
                    } else {
                        var7 = 0.03211606316046453;
                    }
                }
            } else {
                if (input[22] <= 36.5) {
                    if (input[0] <= 10.5) {
                        var7 = 0.019795254431846997;
                    } else {
                        var7 = -0.00923570091852523;
                    }
                } else {
                    if (input[20] <= 3265.0) {
                        var7 = -0.011328509575512818;
                    } else {
                        var7 = 0.05014122533389775;
                    }
                }
            }
        }
    }
    var var8;
    if (input[20] <= 3185.0) {
        if (input[21] <= 9.5) {
            if (input[20] <= 2592.5) {
                if (input[22] <= 25.5) {
                    if (input[0] <= 11.5) {
                        var8 = -0.0478919197411905;
                    } else {
                        var8 = 0.006083106208017632;
                    }
                } else {
                    if (input[20] <= 2495.0) {
                        var8 = -0.09093326765789413;
                    } else {
                        var8 = -0.12087498791683293;
                    }
                }
            } else {
                if (input[22] <= 21.5) {
                    if (input[19] <= 38.5) {
                        var8 = -0.0655365024278555;
                    } else {
                        var8 = -0.09665208068004874;
                    }
                } else {
                    if (input[21] <= 8.5) {
                        var8 = -0.14095658390307034;
                    } else {
                        var8 = -0.09510184831778339;
                    }
                }
            }
        } else {
            if (input[23] <= 0.5) {
                if (input[22] <= 27.5) {
                    if (input[19] <= 37.5) {
                        var8 = -0.0198218314995861;
                    } else {
                        var8 = -0.0822286424986292;
                    }
                } else {
                    if (input[22] <= 37.5) {
                        var8 = -0.13714103696457958;
                    } else {
                        var8 = -0.08644175732514814;
                    }
                }
            } else {
                if (input[20] <= 2412.5) {
                    if (input[22] <= 25.5) {
                        var8 = 0.045118331657388405;
                    } else {
                        var8 = 0.0006669606691624043;
                    }
                } else {
                    if (input[1] <= 0.5) {
                        var8 = -0.04362956690200048;
                    } else {
                        var8 = -0.015077153645848966;
                    }
                }
            }
        }
    } else {
        if (input[23] <= 0.5) {
            if (input[0] <= 11.5) {
                if (input[22] <= 19.5) {
                    if (input[14] <= 0.5) {
                        var8 = 0.011193354921383049;
                    } else {
                        var8 = -0.07477026725539504;
                    }
                } else {
                    if (input[22] <= 39.5) {
                        var8 = -0.036424174084431875;
                    } else {
                        var8 = 0.02307456199595581;
                    }
                }
            } else {
                if (input[22] <= 23.5) {
                    if (input[20] <= 3372.5) {
                        var8 = -0.05672993066173169;
                    } else {
                        var8 = -0.024409122870006617;
                    }
                } else {
                    if (input[22] <= 36.5) {
                        var8 = -0.0844955048244055;
                    } else {
                        var8 = -0.03759968852759184;
                    }
                }
            }
        } else {
            if (input[21] <= 7.5) {
                if (input[1] <= 0.5) {
                    if (input[20] <= 3425.0) {
                        var8 = -0.07035137983810752;
                    } else {
                        var8 = -0.03307484247770146;
                    }
                } else {
                    if (input[22] <= 25.5) {
                        var8 = -0.0014387199546376176;
                    } else {
                        var8 = -0.023756658939610157;
                    }
                }
            } else {
                if (input[0] <= 11.5) {
                    if (input[1] <= 0.5) {
                        var8 = 0.007197200781928548;
                    } else {
                        var8 = 0.03194429020676602;
                    }
                } else {
                    if (input[25] <= 0.5) {
                        var8 = 0.009769004066883687;
                    } else {
                        var8 = -0.025818942274748204;
                    }
                }
            }
        }
    }
    var var9;
    if (input[20] <= 3192.5) {
        if (input[22] <= 25.5) {
            if (input[20] <= 2455.5) {
                if (input[0] <= 15.5) {
                    if (input[21] <= 9.5) {
                        var9 = -0.013251962591307431;
                    } else {
                        var9 = 0.02449066167339358;
                    }
                } else {
                    if (input[21] <= 7.5) {
                        var9 = 0.01784291412648218;
                    } else {
                        var9 = 0.03926179284928044;
                    }
                }
            } else {
                if (input[21] <= 9.5) {
                    if (input[20] <= 2729.5) {
                        var9 = -0.06061661880549824;
                    } else {
                        var9 = -0.1036416470307164;
                    }
                } else {
                    if (input[23] <= 0.5) {
                        var9 = -0.07869991512026102;
                    } else {
                        var9 = -0.025910273347980246;
                    }
                }
            }
        } else {
            if (input[23] <= 0.5) {
                if (input[20] <= 2372.5) {
                    if (input[13] <= 0.5) {
                        var9 = -0.10173671846565002;
                    } else {
                        var9 = -0.07814595119821215;
                    }
                } else {
                    if (input[21] <= 8.5) {
                        var9 = -0.16924740305748653;
                    } else {
                        var9 = -0.13012332439771498;
                    }
                }
            } else {
                if (input[21] <= 8.5) {
                    if (input[1] <= 0.5) {
                        var9 = -0.1313202855938607;
                    } else {
                        var9 = -0.09122069433346075;
                    }
                } else {
                    if (input[1] <= 0.5) {
                        var9 = -0.06370580598844754;
                    } else {
                        var9 = -0.030950031646963833;
                    }
                }
            }
        }
    } else {
        if (input[23] <= 0.5) {
            if (input[0] <= 11.5) {
                if (input[20] <= 3297.5) {
                    if (input[22] <= 22.5) {
                        var9 = -0.033101034300453094;
                    } else {
                        var9 = -0.07947989202103004;
                    }
                } else {
                    if (input[19] <= 40.5) {
                        var9 = -0.00818195995754772;
                    } else {
                        var9 = -0.05557809779988315;
                    }
                }
            } else {
                if (input[22] <= 23.5) {
                    if (input[20] <= 3372.5) {
                        var9 = -0.055871925448448025;
                    } else {
                        var9 = -0.0250525492999443;
                    }
                } else {
                    if (input[22] <= 37.5) {
                        var9 = -0.08395053247900233;
                    } else {
                        var9 = -0.036080288825381356;
                    }
                }
            }
        } else {
            if (input[21] <= 6.5) {
                if (input[1] <= 0.5) {
                    if (input[22] <= 22.5) {
                        var9 = -0.024244434164620594;
                    } else {
                        var9 = -0.06884950143130626;
                    }
                } else {
                    if (input[20] <= 3470.0) {
                        var9 = -0.036742351068046505;
                    } else {
                        var9 = -0.012257130640827783;
                    }
                }
            } else {
                if (input[0] <= 10.5) {
                    if (input[20] <= 3312.5) {
                        var9 = -0.006738554227278866;
                    } else {
                        var9 = 0.023879395649562495;
                    }
                } else {
                    if (input[26] <= 0.5) {
                        var9 = -0.025448276766749118;
                    } else {
                        var9 = 0.005422307236663542;
                    }
                }
            }
        }
    }
    var var10;
    if (input[20] <= 3167.5) {
        if (input[22] <= 25.5) {
            if (input[20] <= 2708.0) {
                if (input[20] <= 2425.0) {
                    if (input[0] <= 13.5) {
                        var10 = -0.01271190987144087;
                    } else {
                        var10 = 0.0296175868768786;
                    }
                } else {
                    if (input[21] <= 9.5) {
                        var10 = -0.05668186262421099;
                    } else {
                        var10 = -0.012156358194588946;
                    }
                }
            } else {
                if (input[21] <= 9.5) {
                    if (input[0] <= 13.5) {
                        var10 = -0.1168661559045963;
                    } else {
                        var10 = -0.08152612894051586;
                    }
                } else {
                    if (input[23] <= 0.5) {
                        var10 = -0.07280847505569375;
                    } else {
                        var10 = -0.022133181245951965;
                    }
                }
            }
        } else {
            if (input[23] <= 0.5) {
                if (input[20] <= 2447.5) {
                    if (input[0] <= 15.5) {
                        var10 = -0.10398735223216754;
                    } else {
                        var10 = -0.07089392524782444;
                    }
                } else {
                    if (input[20] <= 3072.5) {
                        var10 = -0.15774752789410237;
                    } else {
                        var10 = -0.10297230033123284;
                    }
                }
            } else {
                if (input[21] <= 8.5) {
                    if (input[1] <= 0.5) {
                        var10 = -0.1361960463819709;
                    } else {
                        var10 = -0.09743061225942362;
                    }
                } else {
                    if (input[21] <= 11.5) {
                        var10 = -0.06558165412770602;
                    } else {
                        var10 = -0.023561521032817948;
                    }
                }
            }
        }
    } else {
        if (input[23] <= 0.5) {
            if (input[0] <= 11.5) {
                if (input[20] <= 3337.5) {
                    if (input[19] <= 41.5) {
                        var10 = -0.0577530480593101;
                    } else {
                        var10 = -0.16231357106594496;
                    }
                } else {
                    if (input[19] <= 40.5) {
                        var10 = -0.009000410044939977;
                    } else {
                        var10 = -0.052637947745305495;
                    }
                }
            } else {
                if (input[22] <= 25.5) {
                    if (input[22] <= 19.5) {
                        var10 = -0.02081143925922879;
                    } else {
                        var10 = -0.052998158492427214;
                    }
                } else {
                    if (input[22] <= 37.5) {
                        var10 = -0.08923536131278843;
                    } else {
                        var10 = -0.03946537215233852;
                    }
                }
            }
        } else {
            if (input[21] <= 7.5) {
                if (input[20] <= 3326.0) {
                    if (input[0] <= 14.5) {
                        var10 = -0.05592641089271327;
                    } else {
                        var10 = -0.09390744235666812;
                    }
                } else {
                    if (input[1] <= 0.5) {
                        var10 = -0.03587829081236118;
                    } else {
                        var10 = -0.009461991029743228;
                    }
                }
            } else {
                if (input[0] <= 11.5) {
                    if (input[22] <= 36.5) {
                        var10 = 0.014492542241249587;
                    } else {
                        var10 = 0.0585286189056894;
                    }
                } else {
                    if (input[26] <= 0.5) {
                        var10 = -0.028113173292878633;
                    } else {
                        var10 = 0.003976163183957471;
                    }
                }
            }
        }
    }
    var var11;
    if (input[20] <= 3186.5) {
        if (input[22] <= 25.5) {
            if (input[20] <= 2707.5) {
                if (input[0] <= 14.5) {
                    if (input[19] <= 40.5) {
                        var11 = -0.03074047829908183;
                    } else {
                        var11 = -0.08139919735403059;
                    }
                } else {
                    if (input[20] <= 2310.0) {
                        var11 = 0.03191249119144073;
                    } else {
                        var11 = -0.00993050212572962;
                    }
                }
            } else {
                if (input[21] <= 9.5) {
                    if (input[0] <= 16.5) {
                        var11 = -0.11134549169206455;
                    } else {
                        var11 = -0.060587027798693856;
                    }
                } else {
                    if (input[23] <= 0.5) {
                        var11 = -0.08190052747187239;
                    } else {
                        var11 = -0.032330539050970615;
                    }
                }
            }
        } else {
            if (input[23] <= 0.5) {
                if (input[20] <= 2522.5) {
                    if (input[20] <= 2372.5) {
                        var11 = -0.09472638334929516;
                    } else {
                        var11 = -0.12245708796290596;
                    }
                } else {
                    if (input[20] <= 3065.0) {
                        var11 = -0.1620788540043831;
                    } else {
                        var11 = -0.10282464681604873;
                    }
                }
            } else {
                if (input[21] <= 8.5) {
                    if (input[1] <= 0.5) {
                        var11 = -0.13881310131544955;
                    } else {
                        var11 = -0.09238144194292944;
                    }
                } else {
                    if (input[21] <= 11.5) {
                        var11 = -0.06561109702018282;
                    } else {
                        var11 = -0.02253052218593942;
                    }
                }
            }
        }
    } else {
        if (input[23] <= 0.5) {
            if (input[0] <= 11.5) {
                if (input[20] <= 3325.0) {
                    if (input[22] <= 37.0) {
                        var11 = -0.06371162534771577;
                    } else {
                        var11 = -0.018317011108896494;
                    }
                } else {
                    if (input[19] <= 40.5) {
                        var11 = -0.010401523360722864;
                    } else {
                        var11 = -0.04875115084885676;
                    }
                }
            } else {
                if (input[22] <= 23.5) {
                    if (input[19] <= 40.5) {
                        var11 = -0.027264028567120784;
                    } else {
                        var11 = -0.06523720839102472;
                    }
                } else {
                    if (input[22] <= 36.5) {
                        var11 = -0.08308576938992743;
                    } else {
                        var11 = -0.0432360155515687;
                    }
                }
            }
        } else {
            if (input[21] <= 6.5) {
                if (input[1] <= 0.5) {
                    if (input[19] <= 39.5) {
                        var11 = -0.03698459664011205;
                    } else {
                        var11 = -0.07247060220070191;
                    }
                } else {
                    if (input[19] <= 40.5) {
                        var11 = -0.018039645424172374;
                    } else {
                        var11 = -0.04136144626750896;
                    }
                }
            } else {
                if (input[0] <= 10.5) {
                    if (input[20] <= 3302.5) {
                        var11 = -0.009190083611762968;
                    } else {
                        var11 = 0.02763688553363429;
                    }
                } else {
                    if (input[26] <= 0.5) {
                        var11 = -0.024545961253906675;
                    } else {
                        var11 = 0.004728722974512083;
                    }
                }
            }
        }
    }
    var var12;
    if (input[20] <= 3252.5) {
        if (input[23] <= 0.5) {
            if (input[22] <= 25.5) {
                if (input[20] <= 2610.0) {
                    if (input[20] <= 2347.5) {
                        var12 = 0.0012794934337033185;
                    } else {
                        var12 = -0.048720219553135435;
                    }
                } else {
                    if (input[20] <= 3065.0) {
                        var12 = -0.11239400309852578;
                    } else {
                        var12 = -0.07796395050382747;
                    }
                }
            } else {
                if (input[20] <= 3128.0) {
                    if (input[20] <= 2465.0) {
                        var12 = -0.10306410903336001;
                    } else {
                        var12 = -0.15120351977775917;
                    }
                } else {
                    if (input[0] <= 13.5) {
                        var12 = -0.07080349797863182;
                    } else {
                        var12 = -0.12320836784827449;
                    }
                }
            }
        } else {
            if (input[21] <= 7.5) {
                if (input[20] <= 2532.5) {
                    if (input[22] <= 25.5) {
                        var12 = -0.017186840901299863;
                    } else {
                        var12 = -0.09470191424139604;
                    }
                } else {
                    if (input[20] <= 3155.0) {
                        var12 = -0.12131551298577016;
                    } else {
                        var12 = -0.06501782001486443;
                    }
                }
            } else {
                if (input[21] <= 9.5) {
                    if (input[20] <= 2350.0) {
                        var12 = -0.0027332016447335133;
                    } else {
                        var12 = -0.06213914116089694;
                    }
                } else {
                    if (input[20] <= 2408.0) {
                        var12 = 0.020748391810054008;
                    } else {
                        var12 = -0.027530015007810403;
                    }
                }
            }
        }
    } else {
        if (input[23] <= 0.5) {
            if (input[0] <= 12.5) {
                if (input[22] <= 19.5) {
                    if (input[20] <= 3355.0) {
                        var12 = -0.02417674828182319;
                    } else {
                        var12 = 0.018322791572361365;
                    }
                } else {
                    if (input[22] <= 36.5) {
                        var12 = -0.03861866002399092;
                    } else {
                        var12 = 0.007365879214522723;
                    }
                }
            } else {
                if (input[22] <= 23.5) {
                    if (input[12] <= 2.5) {
                        var12 = -0.02596567181630483;
                    } else {
                        var12 = -0.060058168950614776;
                    }
                } else {
                    if (input[22] <= 36.5) {
                        var12 = -0.08531596633377857;
                    } else {
                        var12 = -0.04192632753680504;
                    }
                }
            }
        } else {
            if (input[21] <= 7.5) {
                if (input[26] <= 0.5) {
                    if (input[0] <= 13.5) {
                        var12 = -0.03139484387545122;
                    } else {
                        var12 = -0.07749125112964715;
                    }
                } else {
                    if (input[19] <= 40.5) {
                        var12 = 0.001775253915405233;
                    } else {
                        var12 = -0.03626521248749695;
                    }
                }
            } else {
                if (input[22] <= 36.5) {
                    if (input[0] <= 10.5) {
                        var12 = 0.020134215743064503;
                    } else {
                        var12 = -0.003705769469698548;
                    }
                } else {
                    if (input[0] <= 9.5) {
                        var12 = 0.06986466421603646;
                    } else {
                        var12 = 0.03331757471718145;
                    }
                }
            }
        }
    }
    var var13;
    if (input[20] <= 3186.5) {
        if (input[23] <= 0.5) {
            if (input[22] <= 24.5) {
                if (input[20] <= 2430.0) {
                    if (input[0] <= 14.5) {
                        var13 = -0.024623055926889504;
                    } else {
                        var13 = 0.01976543574246828;
                    }
                } else {
                    if (input[0] <= 12.5) {
                        var13 = -0.10933979220387754;
                    } else {
                        var13 = -0.07434374504172311;
                    }
                }
            } else {
                if (input[20] <= 2532.0) {
                    if (input[22] <= 27.5) {
                        var13 = -0.05696385420513835;
                    } else {
                        var13 = -0.10471871955675566;
                    }
                } else {
                    if (input[20] <= 3049.5) {
                        var13 = -0.1594039851357485;
                    } else {
                        var13 = -0.11299634276729754;
                    }
                }
            }
        } else {
            if (input[21] <= 9.5) {
                if (input[20] <= 2545.0) {
                    if (input[22] <= 25.5) {
                        var13 = -0.0010692557705725251;
                    } else {
                        var13 = -0.08760851976465775;
                    }
                } else {
                    if (input[21] <= 7.5) {
                        var13 = -0.1182568567066515;
                    } else {
                        var13 = -0.08019621368365683;
                    }
                }
            } else {
                if (input[20] <= 2412.5) {
                    if (input[22] <= 27.0) {
                        var13 = 0.0335362131022067;
                    } else {
                        var13 = -0.0014149577442205338;
                    }
                } else {
                    if (input[1] <= 0.5) {
                        var13 = -0.04064420080295424;
                    } else {
                        var13 = -0.012652092146282039;
                    }
                }
            }
        }
    } else {
        if (input[23] <= 0.5) {
            if (input[22] <= 22.5) {
                if (input[20] <= 3382.5) {
                    if (input[19] <= 37.5) {
                        var13 = -0.00496202224652256;
                    } else {
                        var13 = -0.04981450550853332;
                    }
                } else {
                    if (input[19] <= 40.5) {
                        var13 = -0.004213660886297632;
                    } else {
                        var13 = -0.03956858915831541;
                    }
                }
            } else {
                if (input[22] <= 36.5) {
                    if (input[0] <= 10.5) {
                        var13 = -0.04034313593046926;
                    } else {
                        var13 = -0.07763480670502486;
                    }
                } else {
                    if (input[0] <= 12.5) {
                        var13 = -0.0005246918604993535;
                    } else {
                        var13 = -0.041732732559978704;
                    }
                }
            }
        } else {
            if (input[21] <= 6.5) {
                if (input[20] <= 3435.0) {
                    if (input[1] <= 0.5) {
                        var13 = -0.06962079302523708;
                    } else {
                        var13 = -0.037856457131150725;
                    }
                } else {
                    if (input[25] <= 0.5) {
                        var13 = -0.007961560122730594;
                    } else {
                        var13 = -0.052043672471756106;
                    }
                }
            } else {
                if (input[22] <= 36.5) {
                    if (input[0] <= 10.5) {
                        var13 = 0.014796647091483447;
                    } else {
                        var13 = -0.010287130300523844;
                    }
                } else {
                    if (input[1] <= 0.5) {
                        var13 = 0.027555995868570306;
                    } else {
                        var13 = 0.05959893420453059;
                    }
                }
            }
        }
    }
    var var14;
    if (input[20] <= 3186.5) {
        if (input[20] <= 2437.5) {
            if (input[22] <= 26.5) {
                if (input[0] <= 14.5) {
                    if (input[21] <= 9.5) {
                        var14 = -0.024571369043300123;
                    } else {
                        var14 = 0.025075867207753715;
                    }
                } else {
                    if (input[19] <= 37.5) {
                        var14 = 0.034271536442659824;
                    } else {
                        var14 = -0.0020999387358915777;
                    }
                }
            } else {
                if (input[23] <= 0.5) {
                    if (input[21] <= 6.5) {
                        var14 = -0.1328583985554468;
                    } else {
                        var14 = -0.0944157916192727;
                    }
                } else {
                    if (input[21] <= 9.5) {
                        var14 = -0.0821528487137961;
                    } else {
                        var14 = -0.006284383908322142;
                    }
                }
            }
        } else {
            if (input[23] <= 0.5) {
                if (input[22] <= 24.5) {
                    if (input[0] <= 15.5) {
                        var14 = -0.10627958475049659;
                    } else {
                        var14 = -0.061966544718067874;
                    }
                } else {
                    if (input[20] <= 3065.0) {
                        var14 = -0.15412604762955756;
                    } else {
                        var14 = -0.1022239112422905;
                    }
                }
            } else {
                if (input[21] <= 8.5) {
                    if (input[22] <= 18.5) {
                        var14 = -0.05507303426224895;
                    } else {
                        var14 = -0.10935837976680127;
                    }
                } else {
                    if (input[21] <= 9.5) {
                        var14 = -0.06634411639008136;
                    } else {
                        var14 = -0.03200942599016767;
                    }
                }
            }
        }
    } else {
        if (input[23] <= 0.5) {
            if (input[0] <= 11.5) {
                if (input[20] <= 3337.5) {
                    if (input[22] <= 22.5) {
                        var14 = -0.03830128947368239;
                    } else {
                        var14 = -0.08372238483248082;
                    }
                } else {
                    if (input[22] <= 37.5) {
                        var14 = -0.019790235204168293;
                    } else {
                        var14 = 0.018410947557538585;
                    }
                }
            } else {
                if (input[22] <= 22.5) {
                    if (input[20] <= 3355.0) {
                        var14 = -0.05630328103238966;
                    } else {
                        var14 = -0.022081726893620215;
                    }
                } else {
                    if (input[22] <= 36.5) {
                        var14 = -0.08227562694122006;
                    } else {
                        var14 = -0.03803260506845967;
                    }
                }
            }
        } else {
            if (input[21] <= 7.5) {
                if (input[20] <= 3447.0) {
                    if (input[1] <= 0.5) {
                        var14 = -0.05667059538579711;
                    } else {
                        var14 = -0.03188278339028081;
                    }
                } else {
                    if (input[19] <= 40.5) {
                        var14 = -0.009727916820421163;
                    } else {
                        var14 = -0.044348384168698074;
                    }
                }
            } else {
                if (input[0] <= 12.5) {
                    if (input[18] <= 0.5) {
                        var14 = 0.01074423897379303;
                    } else {
                        var14 = 0.04012556471714882;
                    }
                } else {
                    if (input[26] <= 0.5) {
                        var14 = -0.025502109575668296;
                    } else {
                        var14 = 0.0019017133011539498;
                    }
                }
            }
        }
    }
    var var15;
    if (input[20] <= 3187.5) {
        if (input[22] <= 25.5) {
            if (input[20] <= 2455.5) {
                if (input[0] <= 12.5) {
                    if (input[23] <= 0.5) {
                        var15 = -0.03956567368870057;
                    } else {
                        var15 = -0.006856463245762939;
                    }
                } else {
                    if (input[19] <= 39.5) {
                        var15 = 0.026709570246449547;
                    } else {
                        var15 = -0.04655865205707678;
                    }
                }
            } else {
                if (input[21] <= 9.5) {
                    if (input[20] <= 2677.5) {
                        var15 = -0.05914574996428742;
                    } else {
                        var15 = -0.10295518022385831;
                    }
                } else {
                    if (input[23] <= 0.5) {
                        var15 = -0.06987516817424151;
                    } else {
                        var15 = -0.023719439831525833;
                    }
                }
            }
        } else {
            if (input[23] <= 0.5) {
                if (input[20] <= 2365.0) {
                    if (input[0] <= 15.5) {
                        var15 = -0.10318133319405423;
                    } else {
                        var15 = -0.06544177201803825;
                    }
                } else {
                    if (input[20] <= 3065.0) {
                        var15 = -0.1502160147948325;
                    } else {
                        var15 = -0.10959236183525545;
                    }
                }
            } else {
                if (input[21] <= 8.5) {
                    if (input[1] <= 0.5) {
                        var15 = -0.13591804970941063;
                    } else {
                        var15 = -0.09708096566957142;
                    }
                } else {
                    if (input[1] <= 0.5) {
                        var15 = -0.06547901388633555;
                    } else {
                        var15 = -0.02506731666508859;
                    }
                }
            }
        }
    } else {
        if (input[23] <= 0.5) {
            if (input[0] <= 11.5) {
                if (input[20] <= 3285.5) {
                    if (input[19] <= 41.5) {
                        var15 = -0.06553472177189897;
                    } else {
                        var15 = -0.16231357106594496;
                    }
                } else {
                    if (input[19] <= 40.5) {
                        var15 = -0.009125316137204444;
                    } else {
                        var15 = -0.044306336971246404;
                    }
                }
            } else {
                if (input[22] <= 23.5) {
                    if (input[19] <= 40.5) {
                        var15 = -0.026902895974604366;
                    } else {
                        var15 = -0.06288402625649402;
                    }
                } else {
                    if (input[22] <= 38.5) {
                        var15 = -0.08134094025123968;
                    } else {
                        var15 = -0.033520800272181475;
                    }
                }
            }
        } else {
            if (input[21] <= 7.5) {
                if (input[20] <= 3323.5) {
                    if (input[1] <= 0.5) {
                        var15 = -0.08162120964760386;
                    } else {
                        var15 = -0.03995297823956107;
                    }
                } else {
                    if (input[26] <= 0.5) {
                        var15 = -0.0407558047046022;
                    } else {
                        var15 = -0.01056515075505754;
                    }
                }
            } else {
                if (input[22] <= 36.5) {
                    if (input[0] <= 10.5) {
                        var15 = 0.015110524250132783;
                    } else {
                        var15 = -0.007124278850636101;
                    }
                } else {
                    if (input[0] <= 12.5) {
                        var15 = 0.05960015014195384;
                    } else {
                        var15 = 0.016376847370305554;
                    }
                }
            }
        }
    }
    var var16;
    if (input[20] <= 3177.5) {
        if (input[23] <= 0.5) {
            if (input[22] <= 25.5) {
                if (input[20] <= 2430.0) {
                    if (input[0] <= 14.5) {
                        var16 = -0.02799498959208572;
                    } else {
                        var16 = 0.026337325964772715;
                    }
                } else {
                    if (input[0] <= 12.5) {
                        var16 = -0.10917665584123754;
                    } else {
                        var16 = -0.07505048905088538;
                    }
                }
            } else {
                if (input[20] <= 2638.0) {
                    if (input[0] <= 15.5) {
                        var16 = -0.11253593093752275;
                    } else {
                        var16 = -0.07649581215216962;
                    }
                } else {
                    if (input[20] <= 2997.5) {
                        var16 = -0.174429566812244;
                    } else {
                        var16 = -0.12803319964898305;
                    }
                }
            }
        } else {
            if (input[21] <= 9.5) {
                if (input[20] <= 2532.5) {
                    if (input[22] <= 26.5) {
                        var16 = -0.006774187595139405;
                    } else {
                        var16 = -0.08283251673237269;
                    }
                } else {
                    if (input[21] <= 7.5) {
                        var16 = -0.1127054985012121;
                    } else {
                        var16 = -0.07806754552909445;
                    }
                }
            } else {
                if (input[20] <= 2410.0) {
                    if (input[22] <= 29.0) {
                        var16 = 0.03689276936262048;
                    } else {
                        var16 = -0.005911767378868374;
                    }
                } else {
                    if (input[1] <= 0.5) {
                        var16 = -0.044110504454499336;
                    } else {
                        var16 = -0.021163982014384734;
                    }
                }
            }
        }
    } else {
        if (input[23] <= 0.5) {
            if (input[0] <= 11.5) {
                if (input[20] <= 3310.5) {
                    if (input[12] <= 2.5) {
                        var16 = -0.07828900496059871;
                    } else {
                        var16 = -0.039253669533886815;
                    }
                } else {
                    if (input[22] <= 36.5) {
                        var16 = -0.026123561807165296;
                    } else {
                        var16 = 0.018384230921418637;
                    }
                }
            } else {
                if (input[22] <= 22.5) {
                    if (input[20] <= 3372.5) {
                        var16 = -0.05643286310753775;
                    } else {
                        var16 = -0.021882238798034408;
                    }
                } else {
                    if (input[22] <= 36.5) {
                        var16 = -0.07995718058220952;
                    } else {
                        var16 = -0.037489004234118675;
                    }
                }
            }
        } else {
            if (input[21] <= 6.5) {
                if (input[1] <= 0.5) {
                    if (input[22] <= 23.5) {
                        var16 = -0.02975419168944713;
                    } else {
                        var16 = -0.06507386265534809;
                    }
                } else {
                    if (input[20] <= 3480.0) {
                        var16 = -0.038563186685318315;
                    } else {
                        var16 = -0.008180821024039482;
                    }
                }
            } else {
                if (input[18] <= 0.5) {
                    if (input[0] <= 11.5) {
                        var16 = 0.009868363975028337;
                    } else {
                        var16 = -0.017106848472974355;
                    }
                } else {
                    if (input[0] <= 13.5) {
                        var16 = 0.041709826949714604;
                    } else {
                        var16 = 0.0024888496322783113;
                    }
                }
            }
        }
    }
    var var17;
    if (input[20] <= 3262.5) {
        if (input[23] <= 0.5) {
            if (input[22] <= 25.5) {
                if (input[20] <= 2433.0) {
                    if (input[0] <= 14.5) {
                        var17 = -0.02581241544275514;
                    } else {
                        var17 = 0.023458010892118183;
                    }
                } else {
                    if (input[0] <= 11.5) {
                        var17 = -0.11032802454375609;
                    } else {
                        var17 = -0.0791098506887659;
                    }
                }
            } else {
                if (input[22] <= 36.5) {
                    if (input[21] <= 8.5) {
                        var17 = -0.16727855196946598;
                    } else {
                        var17 = -0.12465921295252708;
                    }
                } else {
                    if (input[20] <= 3124.0) {
                        var17 = -0.1066930673056376;
                    } else {
                        var17 = -0.060835745162705214;
                    }
                }
            }
        } else {
            if (input[21] <= 9.5) {
                if (input[20] <= 2542.5) {
                    if (input[22] <= 25.5) {
                        var17 = -0.0047371416530870665;
                    } else {
                        var17 = -0.07615895199913911;
                    }
                } else {
                    if (input[20] <= 3112.5) {
                        var17 = -0.1010989642521082;
                    } else {
                        var17 = -0.04560319476489622;
                    }
                }
            } else {
                if (input[1] <= 0.5) {
                    if (input[22] <= 24.5) {
                        var17 = -0.019444216010401597;
                    } else {
                        var17 = -0.04766388688246397;
                    }
                } else {
                    if (input[20] <= 2220.0) {
                        var17 = 0.04260369568252184;
                    } else {
                        var17 = -0.010663907925279468;
                    }
                }
            }
        }
    } else {
        if (input[23] <= 0.5) {
            if (input[0] <= 11.5) {
                if (input[19] <= 40.5) {
                    if (input[22] <= 37.5) {
                        var17 = -0.014679981681088814;
                    } else {
                        var17 = 0.027172884833642334;
                    }
                } else {
                    if (input[21] <= 7.0) {
                        var17 = -0.07382401527505689;
                    } else {
                        var17 = -0.03997737199750589;
                    }
                }
            } else {
                if (input[22] <= 23.5) {
                    if (input[19] <= 40.5) {
                        var17 = -0.02604626762984411;
                    } else {
                        var17 = -0.0569482921564792;
                    }
                } else {
                    if (input[22] <= 37.5) {
                        var17 = -0.07901511228162358;
                    } else {
                        var17 = -0.033878439365570175;
                    }
                }
            }
        } else {
            if (input[21] <= 7.5) {
                if (input[19] <= 40.5) {
                    if (input[20] <= 3422.5) {
                        var17 = -0.03801335687833516;
                    } else {
                        var17 = -0.006093051119843529;
                    }
                } else {
                    if (input[20] <= 4140.0) {
                        var17 = -0.03995818559236243;
                    } else {
                        var17 = -0.10029642814636745;
                    }
                }
            } else {
                if (input[22] <= 36.5) {
                    if (input[0] <= 10.5) {
                        var17 = 0.020315140280393874;
                    } else {
                        var17 = -0.0036804897204653266;
                    }
                } else {
                    if (input[0] <= 14.0) {
                        var17 = 0.0658664474714641;
                    } else {
                        var17 = 0.018945157711518817;
                    }
                }
            }
        }
    }
    var var18;
    if (input[20] <= 3252.5) {
        if (input[23] <= 0.5) {
            if (input[22] <= 25.5) {
                if (input[20] <= 2433.0) {
                    if (input[0] <= 14.5) {
                        var18 = -0.025855716835575304;
                    } else {
                        var18 = 0.024282880429816925;
                    }
                } else {
                    if (input[20] <= 3121.5) {
                        var18 = -0.09787342004349295;
                    } else {
                        var18 = -0.06110989220184212;
                    }
                }
            } else {
                if (input[20] <= 3077.5) {
                    if (input[20] <= 2465.0) {
                        var18 = -0.0941213913751449;
                    } else {
                        var18 = -0.15337485588397168;
                    }
                } else {
                    if (input[0] <= 8.5) {
                        var18 = -0.04539459729963234;
                    } else {
                        var18 = -0.10700687611546995;
                    }
                }
            }
        } else {
            if (input[21] <= 7.5) {
                if (input[20] <= 2495.0) {
                    if (input[22] <= 26.0) {
                        var18 = -0.0055576964075673896;
                    } else {
                        var18 = -0.0676377288020969;
                    }
                } else {
                    if (input[20] <= 3172.5) {
                        var18 = -0.1177678550779833;
                    } else {
                        var18 = -0.06527935780546179;
                    }
                }
            } else {
                if (input[21] <= 9.5) {
                    if (input[20] <= 2517.5) {
                        var18 = -0.00923435633099858;
                    } else {
                        var18 = -0.06462413446114881;
                    }
                } else {
                    if (input[20] <= 2412.5) {
                        var18 = 0.0205094039107663;
                    } else {
                        var18 = -0.026562323648674738;
                    }
                }
            }
        }
    } else {
        if (input[23] <= 0.5) {
            if (input[0] <= 11.5) {
                if (input[22] <= 19.5) {
                    if (input[19] <= 40.5) {
                        var18 = 0.019371912612910276;
                    } else {
                        var18 = -0.030439411883318935;
                    }
                } else {
                    if (input[21] <= 6.5) {
                        var18 = -0.05916090966750631;
                    } else {
                        var18 = -0.021677109331585082;
                    }
                }
            } else {
                if (input[22] <= 23.5) {
                    if (input[19] <= 40.5) {
                        var18 = -0.025995199355838612;
                    } else {
                        var18 = -0.06130789919081174;
                    }
                } else {
                    if (input[22] <= 36.5) {
                        var18 = -0.08290260107617457;
                    } else {
                        var18 = -0.03532090207173803;
                    }
                }
            }
        } else {
            if (input[21] <= 7.5) {
                if (input[19] <= 40.5) {
                    if (input[20] <= 3435.0) {
                        var18 = -0.03937393115825359;
                    } else {
                        var18 = -0.005510978780172845;
                    }
                } else {
                    if (input[0] <= 14.0) {
                        var18 = -0.04177882172707022;
                    } else {
                        var18 = -0.07026159425253108;
                    }
                }
            } else {
                if (input[22] <= 36.5) {
                    if (input[0] <= 10.5) {
                        var18 = 0.02286042517930087;
                    } else {
                        var18 = -0.005342479038077079;
                    }
                } else {
                    if (input[21] <= 8.5) {
                        var18 = 0.017535795434786956;
                    } else {
                        var18 = 0.05984193257956141;
                    }
                }
            }
        }
    }
    var var19;
    if (input[20] <= 3192.5) {
        if (input[22] <= 25.5) {
            if (input[20] <= 2708.0) {
                if (input[20] <= 2440.0) {
                    if (input[0] <= 13.5) {
                        var19 = -0.015615320646408531;
                    } else {
                        var19 = 0.029389423420520585;
                    }
                } else {
                    if (input[21] <= 9.5) {
                        var19 = -0.055158611037311116;
                    } else {
                        var19 = -0.007633840198410119;
                    }
                }
            } else {
                if (input[21] <= 9.5) {
                    if (input[0] <= 13.5) {
                        var19 = -0.11409445430655371;
                    } else {
                        var19 = -0.07696219894791359;
                    }
                } else {
                    if (input[23] <= 0.5) {
                        var19 = -0.07568140029025372;
                    } else {
                        var19 = -0.026680572080869606;
                    }
                }
            }
        } else {
            if (input[23] <= 0.5) {
                if (input[20] <= 2365.0) {
                    if (input[0] <= 15.5) {
                        var19 = -0.10207139725059329;
                    } else {
                        var19 = -0.06802652953730426;
                    }
                } else {
                    if (input[20] <= 3072.5) {
                        var19 = -0.15534699157481455;
                    } else {
                        var19 = -0.10751372185322662;
                    }
                }
            } else {
                if (input[21] <= 8.5) {
                    if (input[19] <= 36.5) {
                        var19 = -0.0810828695614354;
                    } else {
                        var19 = -0.1272631077619477;
                    }
                } else {
                    if (input[1] <= 0.5) {
                        var19 = -0.06371092211057686;
                    } else {
                        var19 = -0.02432713447857886;
                    }
                }
            }
        }
    } else {
        if (input[23] <= 0.5) {
            if (input[22] <= 23.5) {
                if (input[20] <= 3557.5) {
                    if (input[18] <= 0.5) {
                        var19 = -0.04312506001174069;
                    } else {
                        var19 = 0.004664182522299758;
                    }
                } else {
                    if (input[22] <= 19.5) {
                        var19 = 0.009054499086741913;
                    } else {
                        var19 = -0.021034928135939625;
                    }
                }
            } else {
                if (input[0] <= 11.5) {
                    if (input[20] <= 3267.5) {
                        var19 = -0.09502560210048558;
                    } else {
                        var19 = -0.0224381488529546;
                    }
                } else {
                    if (input[22] <= 38.5) {
                        var19 = -0.08233018810526818;
                    } else {
                        var19 = -0.03769607811546469;
                    }
                }
            }
        } else {
            if (input[21] <= 7.5) {
                if (input[20] <= 3440.0) {
                    if (input[1] <= 0.5) {
                        var19 = -0.06365487120196177;
                    } else {
                        var19 = -0.029306096487237025;
                    }
                } else {
                    if (input[20] <= 3867.5) {
                        var19 = -0.010572446835248855;
                    } else {
                        var19 = -0.04509259268743959;
                    }
                }
            } else {
                if (input[22] <= 36.5) {
                    if (input[1] <= 0.5) {
                        var19 = -0.01350877604261187;
                    } else {
                        var19 = 0.013132218560168864;
                    }
                } else {
                    if (input[0] <= 11.5) {
                        var19 = 0.05822611049158268;
                    } else {
                        var19 = 0.027655787436351772;
                    }
                }
            }
        }
    }
    var var20;
    if (input[20] <= 3192.5) {
        if (input[23] <= 0.5) {
            if (input[20] <= 2401.0) {
                if (input[22] <= 25.5) {
                    if (input[0] <= 15.5) {
                        var20 = -0.02185732486150647;
                    } else {
                        var20 = 0.02533455586875884;
                    }
                } else {
                    if (input[19] <= 40.5) {
                        var20 = -0.09760346174985302;
                    } else {
                        var20 = -0.181350214233114;
                    }
                }
            } else {
                if (input[22] <= 24.5) {
                    if (input[0] <= 12.5) {
                        var20 = -0.11242877206789695;
                    } else {
                        var20 = -0.07946285510935133;
                    }
                } else {
                    if (input[22] <= 38.5) {
                        var20 = -0.1540935697831747;
                    } else {
                        var20 = -0.09787362782711703;
                    }
                }
            }
        } else {
            if (input[21] <= 9.5) {
                if (input[20] <= 2542.5) {
                    if (input[22] <= 26.5) {
                        var20 = -0.006155848768739422;
                    } else {
                        var20 = -0.07766094378804986;
                    }
                } else {
                    if (input[21] <= 7.5) {
                        var20 = -0.12256227673585633;
                    } else {
                        var20 = -0.07593458071505507;
                    }
                }
            } else {
                if (input[20] <= 2408.0) {
                    if (input[22] <= 27.5) {
                        var20 = 0.03694022880869174;
                    } else {
                        var20 = -0.0068148489682317735;
                    }
                } else {
                    if (input[1] <= 0.5) {
                        var20 = -0.04050016405795967;
                    } else {
                        var20 = -0.016129746693893884;
                    }
                }
            }
        }
    } else {
        if (input[23] <= 0.5) {
            if (input[22] <= 22.5) {
                if (input[20] <= 3395.0) {
                    if (input[19] <= 40.5) {
                        var20 = -0.03755403263287536;
                    } else {
                        var20 = -0.06614358599533322;
                    }
                } else {
                    if (input[19] <= 40.5) {
                        var20 = -0.0017942886003391592;
                    } else {
                        var20 = -0.0447343733938227;
                    }
                }
            } else {
                if (input[0] <= 11.5) {
                    if (input[20] <= 3262.5) {
                        var20 = -0.07926586197447251;
                    } else {
                        var20 = -0.026698416703279087;
                    }
                } else {
                    if (input[22] <= 38.5) {
                        var20 = -0.08012245250000773;
                    } else {
                        var20 = -0.030975619773447087;
                    }
                }
            }
        } else {
            if (input[21] <= 6.5) {
                if (input[1] <= 0.5) {
                    if (input[19] <= 37.5) {
                        var20 = -0.016682349381019347;
                    } else {
                        var20 = -0.0667751539727231;
                    }
                } else {
                    if (input[19] <= 39.5) {
                        var20 = -0.0064447243916172774;
                    } else {
                        var20 = -0.030788220167279376;
                    }
                }
            } else {
                if (input[22] <= 36.5) {
                    if (input[0] <= 10.5) {
                        var20 = 0.012947738984126645;
                    } else {
                        var20 = -0.010509611945040966;
                    }
                } else {
                    if (input[1] <= 0.5) {
                        var20 = 0.021922593095667384;
                    } else {
                        var20 = 0.05317326674111957;
                    }
                }
            }
        }
    }
    var var21;
    if (input[20] <= 3192.5) {
        if (input[23] <= 0.5) {
            if (input[22] <= 25.5) {
                if (input[20] <= 2677.5) {
                    if (input[0] <= 12.5) {
                        var21 = -0.051027719764588864;
                    } else {
                        var21 = -0.000355433717999684;
                    }
                } else {
                    if (input[0] <= 11.5) {
                        var21 = -0.11547114132515772;
                    } else {
                        var21 = -0.0832788130528977;
                    }
                }
            } else {
                if (input[20] <= 2532.0) {
                    if (input[22] <= 40.0) {
                        var21 = -0.10693364990984124;
                    } else {
                        var21 = -0.07282036272641229;
                    }
                } else {
                    if (input[20] <= 3065.0) {
                        var21 = -0.1644793715019396;
                    } else {
                        var21 = -0.10566909132812263;
                    }
                }
            }
        } else {
            if (input[21] <= 9.5) {
                if (input[20] <= 2462.5) {
                    if (input[22] <= 25.5) {
                        var21 = 0.004895200373187022;
                    } else {
                        var21 = -0.07236765124850118;
                    }
                } else {
                    if (input[21] <= 7.5) {
                        var21 = -0.11586270724803868;
                    } else {
                        var21 = -0.07767561800885842;
                    }
                }
            } else {
                if (input[20] <= 2215.0) {
                    if (input[22] <= 26.5) {
                        var21 = 0.05106004093912215;
                    } else {
                        var21 = 0.009947693259352668;
                    }
                } else {
                    if (input[1] <= 0.5) {
                        var21 = -0.039923459142169715;
                    } else {
                        var21 = -0.012585888015112373;
                    }
                }
            }
        }
    } else {
        if (input[23] <= 0.5) {
            if (input[0] <= 12.5) {
                if (input[20] <= 3305.0) {
                    if (input[21] <= 7.5) {
                        var21 = -0.09238041548098476;
                    } else {
                        var21 = -0.05698089565200161;
                    }
                } else {
                    if (input[19] <= 40.5) {
                        var21 = -0.011236531301883911;
                    } else {
                        var21 = -0.0539709603324211;
                    }
                }
            } else {
                if (input[22] <= 23.5) {
                    if (input[20] <= 3355.0) {
                        var21 = -0.05260449914675594;
                    } else {
                        var21 = -0.024301599754565008;
                    }
                } else {
                    if (input[22] <= 36.5) {
                        var21 = -0.08755237446523614;
                    } else {
                        var21 = -0.041996488403643874;
                    }
                }
            }
        } else {
            if (input[21] <= 6.5) {
                if (input[1] <= 0.5) {
                    if (input[22] <= 37.5) {
                        var21 = -0.06388961982984653;
                    } else {
                        var21 = -0.013471674605464796;
                    }
                } else {
                    if (input[19] <= 39.5) {
                        var21 = 0.0002514799267273425;
                    } else {
                        var21 = -0.03123819255995241;
                    }
                }
            } else {
                if (input[0] <= 11.5) {
                    if (input[18] <= 0.5) {
                        var21 = 0.009520528902400412;
                    } else {
                        var21 = 0.04638867663036644;
                    }
                } else {
                    if (input[25] <= 0.5) {
                        var21 = 0.005222622045887932;
                    } else {
                        var21 = -0.02812930822638994;
                    }
                }
            }
        }
    }
    var var22;
    if (input[20] <= 3257.5) {
        if (input[23] <= 0.5) {
            if (input[22] <= 25.5) {
                if (input[20] <= 2428.0) {
                    if (input[0] <= 15.5) {
                        var22 = -0.026464941979609267;
                    } else {
                        var22 = 0.026727041298834124;
                    }
                } else {
                    if (input[20] <= 3127.5) {
                        var22 = -0.10014687331613371;
                    } else {
                        var22 = -0.06323439497813192;
                    }
                }
            } else {
                if (input[22] <= 37.5) {
                    if (input[20] <= 2512.5) {
                        var22 = -0.10091018479338316;
                    } else {
                        var22 = -0.14631889423938121;
                    }
                } else {
                    if (input[20] <= 3155.0) {
                        var22 = -0.10516144199930699;
                    } else {
                        var22 = -0.05580732539551825;
                    }
                }
            }
        } else {
            if (input[21] <= 9.5) {
                if (input[20] <= 2490.0) {
                    if (input[22] <= 25.5) {
                        var22 = 0.0027754525177942427;
                    } else {
                        var22 = -0.06740367722454817;
                    }
                } else {
                    if (input[20] <= 3170.0) {
                        var22 = -0.10043204230619969;
                    } else {
                        var22 = -0.04157735065543373;
                    }
                }
            } else {
                if (input[20] <= 2408.0) {
                    if (input[22] <= 27.0) {
                        var22 = 0.043851623932276255;
                    } else {
                        var22 = 0.0008401010065062248;
                    }
                } else {
                    if (input[1] <= 0.5) {
                        var22 = -0.037911976465162006;
                    } else {
                        var22 = -0.011990253999261902;
                    }
                }
            }
        }
    } else {
        if (input[23] <= 0.5) {
            if (input[0] <= 11.5) {
                if (input[22] <= 37.5) {
                    if (input[22] <= 19.5) {
                        var22 = 0.009717187140500403;
                    } else {
                        var22 = -0.03342284554151614;
                    }
                } else {
                    if (input[0] <= 9.5) {
                        var22 = 0.0352990338306204;
                    } else {
                        var22 = -0.0036269026129789987;
                    }
                }
            } else {
                if (input[22] <= 23.5) {
                    if (input[19] <= 40.5) {
                        var22 = -0.027521889014930887;
                    } else {
                        var22 = -0.06590192641868112;
                    }
                } else {
                    if (input[22] <= 38.5) {
                        var22 = -0.07989007994069325;
                    } else {
