function score_diarreia(input) {
    var var0;
    if (input[20] <= 3302.5) {
        if (input[22] <= 25.5) {
            if (input[20] <= 2430.0) {
                if (input[20] <= 2310.0) {
                    if (input[21] <= 8.5) {
                        var0 = 0.0459380669167933;
                    } else {
                        var0 = 0.05360756743327557;
                    }
                } else {
                    if (input[0] <= 10.5) {
                        var0 = 0.04848373785634394;
                    } else {
                        var0 = 0.038332565549273376;
                    }
                }
            } else {
                if (input[0] <= 12.5) {
                    if (input[0] <= 6.5) {
                        var0 = 0.047509537505989324;
                    } else {
                        var0 = 0.03200213248663466;
                    }
                } else {
                    if (input[21] <= 9.5) {
                        var0 = 0.01819059743004429;
                    } else {
                        var0 = 0.027843146182224703;
                    }
                }
            }
        } else {
            if (input[21] <= 9.5) {
                if (input[20] <= 2345.0) {
                    if (input[22] <= 29.5) {
                        var0 = 0.03845954118322928;
                    } else {
                        var0 = 0.030290720051282354;
                    }
                } else {
                    if (input[20] <= 2977.5) {
                        var0 = 0.00650023841597895;
                    } else {
                        var0 = 0.015796983266199365;
                    }
                }
            } else {
                if (input[13] <= 0.5) {
                    if (input[20] <= 2367.5) {
                        var0 = 0.03417237092763604;
                    } else {
                        var0 = 0.024959315902114927;
                    }
                } else {
                    if (input[0] <= 6.5) {
                        var0 = 0.05252582070653405;
                    } else {
                        var0 = 0.033304984721582914;
                    }
                }
            }
        }
    } else {
        if (input[0] <= 15.5) {
            if (input[22] <= 25.5) {
                if (input[0] <= 10.5) {
                    if (input[19] <= 40.5) {
                        var0 = 0.05876371573775441;
                    } else {
                        var0 = 0.04877166227890698;
                    }
                } else {
                    if (input[20] <= 3362.5) {
                        var0 = 0.03135595913892502;
                    } else {
                        var0 = 0.04591843544071027;
                    }
                }
            } else {
                if (input[12] <= 2.5) {
                    if (input[21] <= 11.5) {
                        var0 = 0.037511460449191;
                    } else {
                        var0 = 0.04473376698733782;
                    }
                } else {
                    if (input[20] <= 3847.0) {
                        var0 = 0.047888381825725114;
                    } else {
                        var0 = 0.0395370630381913;
                    }
                }
            }
        } else {
            if (input[22] <= 31.5) {
                if (input[12] <= 2.5) {
                    if (input[20] <= 3392.5) {
                        var0 = 0.01858338486604897;
                    } else {
                        var0 = 0.028173097733146166;
                    }
                } else {
                    if (input[20] <= 3327.5) {
                        var0 = 0.017189338552969356;
                    } else {
                        var0 = 0.037040100808272435;
                    }
                }
            } else {
                if (input[12] <= 1.5) {
                    if (input[22] <= 33.5) {
                        var0 = 0.03536684615375443;
                    } else {
                        var0 = 0.04606726675138209;
                    }
                } else {
                    if (input[19] <= 36.5) {
                        var0 = 0.03623868727116919;
                    } else {
                        var0 = 0.05377832894533182;
                    }
                }
            }
        }
    }
    var var1;
    if (input[20] <= 3329.5) {
        if (input[20] <= 2361.0) {
            if (input[22] <= 26.5) {
                if (input[21] <= 8.5) {
                    if (input[0] <= 6.5) {
                        var1 = 0.059183141903847554;
                    } else {
                        var1 = 0.0459011054530521;
                    }
                } else {
                    if (input[22] <= 23.5) {
                        var1 = 0.0567297760214222;
                    } else {
                        var1 = 0.04816865409754705;
                    }
                }
            } else {
                if (input[0] <= 10.5) {
                    if (input[22] <= 29.5) {
                        var1 = 0.03639573462325543;
                    } else {
                        var1 = 0.027751816663738715;
                    }
                } else {
                    if (input[12] <= 1.5) {
                        var1 = 0.03620797884918115;
                    } else {
                        var1 = 0.027821017394935307;
                    }
                }
            }
        } else {
            if (input[21] <= 9.5) {
                if (input[22] <= 25.5) {
                    if (input[0] <= 15.5) {
                        var1 = 0.028987527889682514;
                    } else {
                        var1 = 0.013243864458360613;
                    }
                } else {
                    if (input[20] <= 3001.0) {
                        var1 = 0.006770775123962584;
                    } else {
                        var1 = 0.01651702589452535;
                    }
                }
            } else {
                if (input[0] <= 6.5) {
                    if (input[13] <= 0.5) {
                        var1 = 0.03997747174990431;
                    } else {
                        var1 = 0.05928787604613559;
                    }
                } else {
                    if (input[22] <= 27.5) {
                        var1 = 0.03400351751142703;
                    } else {
                        var1 = 0.02665808850496759;
                    }
                }
            }
        }
    } else {
        if (input[0] <= 14.5) {
            if (input[22] <= 25.5) {
                if (input[0] <= 10.5) {
                    if (input[19] <= 40.5) {
                        var1 = 0.06212970952636492;
                    } else {
                        var1 = 0.04953945672701094;
                    }
                } else {
                    if (input[19] <= 39.5) {
                        var1 = 0.052075399425485176;
                    } else {
                        var1 = 0.042904838130444385;
                    }
                }
            } else {
                if (input[21] <= 11.5) {
                    if (input[22] <= 33.5) {
                        var1 = 0.03604685118484182;
                    } else {
                        var1 = 0.04341911265142174;
                    }
                } else {
                    if (input[12] <= 2.5) {
                        var1 = 0.04519463363750541;
                    } else {
                        var1 = 0.052891994064115495;
                    }
                }
            }
        } else {
            if (input[22] <= 33.5) {
                if (input[12] <= 2.5) {
                    if (input[20] <= 3377.5) {
                        var1 = 0.019667538973592847;
                    } else {
                        var1 = 0.030361181271179198;
                    }
                } else {
                    if (input[0] <= 17.5) {
                        var1 = 0.04384648005310102;
                    } else {
                        var1 = 0.027478605763539384;
                    }
                }
            } else {
                if (input[12] <= 3.5) {
                    if (input[20] <= 3425.0) {
                        var1 = 0.039712624791464944;
                    } else {
                        var1 = 0.05030590923953013;
                    }
                } else {
                    if (input[0] <= 17.5) {
                        var1 = 0.057562680757729336;
                    } else {
                        var1 = 0.06858607643967313;
                    }
                }
            }
        }
    }
    var var2;
    if (input[20] <= 3329.0) {
        if (input[22] <= 25.5) {
            if (input[20] <= 2352.5) {
                if (input[12] <= 1.5) {
                    if (input[21] <= 8.5) {
                        var2 = 0.04910211021813181;
                    } else {
                        var2 = 0.05807061350606494;
                    }
                } else {
                    if (input[22] <= 23.5) {
                        var2 = 0.04760320356717847;
                    } else {
                        var2 = 0.03983880846472153;
                    }
                }
            } else {
                if (input[0] <= 6.5) {
                    if (input[20] <= 2935.0) {
                        var2 = 0.03926189560470959;
                    } else {
                        var2 = 0.05649813000929726;
                    }
                } else {
                    if (input[0] <= 15.5) {
                        var2 = 0.03044629089331349;
                    } else {
                        var2 = 0.017902524753985186;
                    }
                }
            }
        } else {
            if (input[21] <= 9.5) {
                if (input[20] <= 2361.0) {
                    if (input[18] <= 0.5) {
                        var2 = 0.03180575011838038;
                    } else {
                        var2 = 0.022616637874795065;
                    }
                } else {
                    if (input[20] <= 2988.0) {
                        var2 = 0.005402436810178074;
                    } else {
                        var2 = 0.016558321047729436;
                    }
                }
            } else {
                if (input[23] <= 0.5) {
                    if (input[19] <= 37.5) {
                        var2 = 0.031235074392984508;
                    } else {
                        var2 = 0.023168789403033952;
                    }
                } else {
                    if (input[1] <= 0.5) {
                        var2 = 0.029146662756499644;
                    } else {
                        var2 = 0.03761068278129368;
                    }
                }
            }
        }
    } else {
        if (input[0] <= 14.5) {
            if (input[22] <= 25.5) {
                if (input[0] <= 10.5) {
                    if (input[19] <= 40.5) {
                        var2 = 0.06045794808623842;
                    } else {
                        var2 = 0.049664584887635976;
                    }
                } else {
                    if (input[19] <= 40.5) {
                        var2 = 0.047652136252507034;
                    } else {
                        var2 = 0.03873622277855082;
                    }
                }
            } else {
                if (input[12] <= 2.5) {
                    if (input[22] <= 33.5) {
                        var2 = 0.037387178127558846;
                    } else {
                        var2 = 0.043323180012843174;
                    }
                } else {
                    if (input[20] <= 3777.5) {
                        var2 = 0.05015014757805831;
                    } else {
                        var2 = 0.04222494413250362;
                    }
                }
            }
        } else {
            if (input[22] <= 32.5) {
                if (input[21] <= 9.5) {
                    if (input[0] <= 15.5) {
                        var2 = 0.03316472623979683;
                    } else {
                        var2 = 0.025978573794969134;
                    }
                } else {
                    if (input[12] <= 2.5) {
                        var2 = 0.032465257418648454;
                    } else {
                        var2 = 0.044057125216410614;
                    }
                }
            } else {
                if (input[12] <= 2.5) {
                    if (input[22] <= 35.5) {
                        var2 = 0.041201619165171344;
                    } else {
                        var2 = 0.049308968308294086;
                    }
                } else {
                    if (input[16] <= 0.5) {
                        var2 = 0.06937525971712687;
                    } else {
                        var2 = 0.05527110284694707;
                    }
                }
            }
        }
    }
    var var3;
    if (input[20] <= 3329.5) {
        if (input[22] <= 25.5) {
            if (input[20] <= 2367.5) {
                if (input[22] <= 23.5) {
                    if (input[20] <= 2337.5) {
                        var3 = 0.05349799278238553;
                    } else {
                        var3 = 0.042721056256187905;
                    }
                } else {
                    if (input[12] <= 4.5) {
                        var3 = 0.043023302602376176;
                    } else {
                        var3 = 0.034312375579141303;
                    }
                }
            } else {
                if (input[0] <= 14.5) {
                    if (input[0] <= 6.5) {
                        var3 = 0.048066744662375385;
                    } else {
                        var3 = 0.03156414256320754;
                    }
                } else {
                    if (input[19] <= 38.5) {
                        var3 = 0.02739595534265958;
                    } else {
                        var3 = 0.014461221237971852;
                    }
                }
            }
        } else {
            if (input[21] <= 9.5) {
                if (input[20] <= 2376.0) {
                    if (input[22] <= 29.5) {
                        var3 = 0.03825750031909805;
                    } else {
                        var3 = 0.02920916436144393;
                    }
                } else {
                    if (input[20] <= 3001.0) {
                        var3 = 0.005296061201070424;
                    } else {
                        var3 = 0.014950718749872704;
                    }
                }
            } else {
                if (input[21] <= 11.5) {
                    if (input[20] <= 2939.0) {
                        var3 = 0.020636915773373798;
                    } else {
                        var3 = 0.026365434578315437;
                    }
                } else {
                    if (input[23] <= 0.5) {
                        var3 = 0.02780626100971897;
                    } else {
                        var3 = 0.03588561687251364;
                    }
                }
            }
        }
    } else {
        if (input[0] <= 14.5) {
            if (input[22] <= 25.5) {
                if (input[0] <= 10.5) {
                    if (input[19] <= 40.5) {
                        var3 = 0.06049629282248537;
                    } else {
                        var3 = 0.05038166706542732;
                    }
                } else {
                    if (input[19] <= 40.5) {
                        var3 = 0.0488590025513852;
                    } else {
                        var3 = 0.03921861638589852;
                    }
                }
            } else {
                if (input[12] <= 2.5) {
                    if (input[22] <= 33.5) {
                        var3 = 0.03747376425241073;
                    } else {
                        var3 = 0.042311131416733316;
                    }
                } else {
                    if (input[0] <= 6.5) {
                        var3 = 0.05847344098041625;
                    } else {
                        var3 = 0.044776980190092054;
                    }
                }
            }
        } else {
            if (input[22] <= 33.5) {
                if (input[21] <= 9.5) {
                    if (input[20] <= 3364.5) {
                        var3 = 0.014192648583362518;
                    } else {
                        var3 = 0.02957245761712185;
                    }
                } else {
                    if (input[12] <= 2.5) {
                        var3 = 0.033112167100379106;
                    } else {
                        var3 = 0.04563880118598038;
                    }
                }
            } else {
                if (input[12] <= 2.5) {
                    if (input[23] <= 0.5) {
                        var3 = 0.05000577431146188;
                    } else {
                        var3 = 0.04275719214476784;
                    }
                } else {
                    if (input[23] <= 0.5) {
                        var3 = 0.06355298484621417;
                    } else {
                        var3 = 0.053148360810684664;
                    }
                }
            }
        }
    }
    var var4;
    if (input[20] <= 3329.0) {
        if (input[20] <= 2357.5) {
            if (input[22] <= 24.5) {
                if (input[21] <= 8.5) {
                    if (input[0] <= 6.5) {
                        var4 = 0.056625016283972006;
                    } else {
                        var4 = 0.045409065100452686;
                    }
                } else {
                    if (input[0] <= 13.5) {
                        var4 = 0.059567386481406234;
                    } else {
                        var4 = 0.05201190599498586;
                    }
                }
            } else {
                if (input[22] <= 30.5) {
                    if (input[21] <= 17.0) {
                        var4 = 0.03895299328734951;
                    } else {
                        var4 = 0.05365790479147446;
                    }
                } else {
                    if (input[22] <= 32.5) {
                        var4 = 0.027374262837440343;
                    } else {
                        var4 = 0.03402943002108398;
                    }
                }
            }
        } else {
            if (input[21] <= 9.5) {
                if (input[22] <= 26.5) {
                    if (input[0] <= 9.5) {
                        var4 = 0.03476260674091805;
                    } else {
                        var4 = 0.019688269229799833;
                    }
                } else {
                    if (input[20] <= 3002.0) {
                        var4 = 0.006345962490556074;
                    } else {
                        var4 = 0.01549869115546891;
                    }
                }
            } else {
                if (input[0] <= 6.5) {
                    if (input[22] <= 26.5) {
                        var4 = 0.056015022495863424;
                    } else {
                        var4 = 0.03557239333746275;
                    }
                } else {
                    if (input[18] <= 0.5) {
                        var4 = 0.03144333840598511;
                    } else {
                        var4 = 0.02280352851175882;
                    }
                }
            }
        }
    } else {
        if (input[0] <= 14.5) {
            if (input[22] <= 25.5) {
                if (input[0] <= 9.5) {
                    if (input[20] <= 3739.0) {
                        var4 = 0.06178483335591945;
                    } else {
                        var4 = 0.05297238078687256;
                    }
                } else {
                    if (input[12] <= 2.5) {
                        var4 = 0.04538914985877786;
                    } else {
                        var4 = 0.05783979965793043;
                    }
                }
            } else {
                if (input[21] <= 10.5) {
                    if (input[22] <= 33.5) {
                        var4 = 0.03652594312790834;
                    } else {
                        var4 = 0.043957318163951445;
                    }
                } else {
                    if (input[20] <= 3757.5) {
                        var4 = 0.04890905005910736;
                    } else {
                        var4 = 0.04213032033393142;
                    }
                }
            }
        } else {
            if (input[22] <= 31.5) {
                if (input[12] <= 2.5) {
                    if (input[20] <= 3365.0) {
                        var4 = 0.014447200727750431;
                    } else {
                        var4 = 0.02832383390688514;
                    }
                } else {
                    if (input[21] <= 9.5) {
                        var4 = 0.03232204664036606;
                    } else {
                        var4 = 0.04393797089497029;
                    }
                }
            } else {
                if (input[12] <= 2.5) {
                    if (input[22] <= 33.5) {
                        var4 = 0.036918949383251944;
                    } else {
                        var4 = 0.04674748740098694;
                    }
                } else {
                    if (input[19] <= 40.5) {
                        var4 = 0.057644581710973704;
                    } else {
                        var4 = 0.044351417108087016;
                    }
                }
            }
        }
    }
    var var5;
    if (input[20] <= 3329.5) {
        if (input[20] <= 2361.0) {
            if (input[22] <= 25.5) {
                if (input[21] <= 8.5) {
                    if (input[20] <= 1467.5) {
                        var5 = 0.04069852579766125;
                    } else {
                        var5 = 0.04694889057393181;
                    }
                } else {
                    if (input[22] <= 24.5) {
                        var5 = 0.05672354815130742;
                    } else {
                        var5 = 0.04535218757582739;
                    }
                }
            } else {
                if (input[13] <= 0.5) {
                    if (input[18] <= 0.5) {
                        var5 = 0.03324266862801481;
                    } else {
                        var5 = 0.02646672389184475;
                    }
                } else {
                    if (input[20] <= 2027.5) {
                        var5 = 0.04025699524712938;
                    } else {
                        var5 = 0.03367817487399681;
                    }
                }
            }
        } else {
            if (input[21] <= 9.5) {
                if (input[22] <= 25.5) {
                    if (input[0] <= 15.5) {
                        var5 = 0.02877427855672073;
                    } else {
                        var5 = 0.011479504125884221;
                    }
                } else {
                    if (input[20] <= 3057.5) {
                        var5 = 0.007580312093764197;
                    } else {
                        var5 = 0.017089679658638033;
                    }
                }
            } else {
                if (input[0] <= 7.5) {
                    if (input[22] <= 27.5) {
                        var5 = 0.049966125942327896;
                    } else {
                        var5 = 0.03134662187483433;
                    }
                } else {
                    if (input[23] <= 0.5) {
                        var5 = 0.026151514358566517;
                    } else {
                        var5 = 0.033310181520792584;
                    }
                }
            }
        }
    } else {
        if (input[0] <= 14.5) {
            if (input[22] <= 25.5) {
                if (input[0] <= 9.5) {
                    if (input[20] <= 3710.0) {
                        var5 = 0.06134164505261543;
                    } else {
                        var5 = 0.05001043908610293;
                    }
                } else {
                    if (input[20] <= 3387.5) {
                        var5 = 0.034978697462372046;
                    } else {
                        var5 = 0.048905428358291037;
                    }
                }
            } else {
                if (input[21] <= 10.5) {
                    if (input[22] <= 35.5) {
                        var5 = 0.03751789835962226;
                    } else {
                        var5 = 0.044807079423556426;
                    }
                } else {
                    if (input[12] <= 2.5) {
                        var5 = 0.0459284255865467;
                    } else {
                        var5 = 0.05292091447966226;
                    }
                }
            }
        } else {
            if (input[22] <= 33.5) {
                if (input[21] <= 9.5) {
                    if (input[22] <= 20.5) {
                        var5 = 0.03348782075350835;
                    } else {
                        var5 = 0.026695593851853057;
                    }
                } else {
                    if (input[12] <= 1.5) {
                        var5 = 0.03131848174271385;
                    } else {
                        var5 = 0.040665785981521395;
                    }
                }
            } else {
                if (input[12] <= 2.5) {
                    if (input[20] <= 3422.0) {
                        var5 = 0.04050257952050819;
                    } else {
                        var5 = 0.04981397177154027;
                    }
                } else {
                    if (input[22] <= 40.0) {
                        var5 = 0.06450259517168423;
                    } else {
                        var5 = 0.053967306890289446;
                    }
                }
            }
        }
    }
    var var6;
    if (input[20] <= 3329.0) {
        if (input[20] <= 2357.5) {
            if (input[22] <= 26.5) {
                if (input[21] <= 8.5) {
                    if (input[22] <= 22.5) {
                        var6 = 0.047775478568913156;
                    } else {
                        var6 = 0.04159955440701243;
                    }
                } else {
                    if (input[22] <= 24.5) {
                        var6 = 0.05701192063952121;
                    } else {
                        var6 = 0.04559922118226816;
                    }
                }
            } else {
                if (input[21] <= 8.5) {
                    if (input[18] <= 0.5) {
                        var6 = 0.029877486098878518;
                    } else {
                        var6 = 0.018405078401509754;
                    }
                } else {
                    if (input[12] <= 4.5) {
                        var6 = 0.03602322784799649;
                    } else {
                        var6 = 0.020633055778450295;
                    }
                }
            }
        } else {
            if (input[21] <= 9.5) {
                if (input[22] <= 25.5) {
                    if (input[0] <= 14.5) {
                        var6 = 0.028366547534467948;
                    } else {
                        var6 = 0.014415619546815616;
                    }
                } else {
                    if (input[20] <= 2922.5) {
                        var6 = 0.004821199171002893;
                    } else {
                        var6 = 0.014456664708320011;
                    }
                }
            } else {
                if (input[0] <= 7.5) {
                    if (input[20] <= 3292.5) {
                        var6 = 0.04086079082598123;
                    } else {
                        var6 = 0.06698267273965028;
                    }
                } else {
                    if (input[23] <= 0.5) {
                        var6 = 0.02547234936358344;
                    } else {
                        var6 = 0.0323667019083797;
                    }
                }
            }
        }
    } else {
        if (input[0] <= 15.5) {
            if (input[22] <= 24.5) {
                if (input[0] <= 7.5) {
                    if (input[20] <= 3705.0) {
                        var6 = 0.06697383858157187;
                    } else {
                        var6 = 0.054313266919651576;
                    }
                } else {
                    if (input[19] <= 40.5) {
                        var6 = 0.05268188992161483;
                    } else {
                        var6 = 0.04323455802868287;
                    }
                }
            } else {
                if (input[12] <= 2.5) {
                    if (input[19] <= 39.5) {
                        var6 = 0.043175827383264996;
                    } else {
                        var6 = 0.03660571599829655;
                    }
                } else {
                    if (input[0] <= 7.5) {
                        var6 = 0.05672719904008896;
                    } else {
                        var6 = 0.04624198562161644;
                    }
                }
            }
        } else {
            if (input[22] <= 31.5) {
                if (input[21] <= 9.5) {
                    if (input[20] <= 3863.0) {
                        var6 = 0.028185469330289845;
                    } else {
                        var6 = 0.022368251869420524;
                    }
                } else {
                    if (input[12] <= 1.5) {
                        var6 = 0.030207490869867223;
                    } else {
                        var6 = 0.038958425541051465;
                    }
                }
            } else {
                if (input[19] <= 40.5) {
                    if (input[12] <= 1.5) {
                        var6 = 0.04691878974858203;
                    } else {
                        var6 = 0.05426221643488485;
                    }
                } else {
                    if (input[21] <= 11.5) {
                        var6 = 0.037028899256384654;
                    } else {
                        var6 = 0.052254483367979235;
                    }
                }
            }
        }
    }
    var var7;
    if (input[20] <= 3329.5) {
        if (input[20] <= 2361.0) {
            if (input[22] <= 26.5) {
                if (input[21] <= 8.5) {
                    if (input[0] <= 8.5) {
                        var7 = 0.05261276940599941;
                    } else {
                        var7 = 0.043077392114055806;
                    }
                } else {
                    if (input[22] <= 23.5) {
                        var7 = 0.05810949895726455;
                    } else {
                        var7 = 0.04859475495678583;
                    }
                }
            } else {
                if (input[21] <= 8.5) {
                    if (input[22] <= 30.5) {
                        var7 = 0.03437270339864802;
                    } else {
                        var7 = 0.02641778417041814;
                    }
                } else {
                    if (input[23] <= 0.5) {
                        var7 = 0.03237488178315414;
                    } else {
                        var7 = 0.038498761792807715;
                    }
                }
            }
        } else {
            if (input[21] <= 9.5) {
                if (input[22] <= 25.5) {
                    if (input[0] <= 9.5) {
                        var7 = 0.03396372361266304;
                    } else {
                        var7 = 0.02073504235738725;
                    }
                } else {
                    if (input[20] <= 2985.0) {
                        var7 = 0.005909027562418769;
                    } else {
                        var7 = 0.016078211575707144;
                    }
                }
            } else {
                if (input[0] <= 6.5) {
                    if (input[22] <= 26.5) {
                        var7 = 0.05189451711705718;
                    } else {
                        var7 = 0.036463424153454355;
                    }
                } else {
                    if (input[0] <= 14.5) {
                        var7 = 0.03251411152293163;
                    } else {
                        var7 = 0.025573827115472;
                    }
                }
            }
        }
    } else {
        if (input[0] <= 14.5) {
            if (input[22] <= 24.5) {
                if (input[0] <= 10.5) {
                    if (input[19] <= 40.5) {
                        var7 = 0.06106874231298012;
                    } else {
                        var7 = 0.05089259012179801;
                    }
                } else {
                    if (input[20] <= 3385.0) {
                        var7 = 0.033443589824226086;
                    } else {
                        var7 = 0.0494464657412939;
                    }
                }
            } else {
                if (input[12] <= 2.5) {
                    if (input[21] <= 10.5) {
                        var7 = 0.038940981695700906;
                    } else {
                        var7 = 0.04505156449748434;
                    }
                } else {
                    if (input[0] <= 6.5) {
                        var7 = 0.05885188908444439;
                    } else {
                        var7 = 0.04661225440737946;
                    }
                }
            }
        } else {
            if (input[22] <= 31.5) {
                if (input[12] <= 1.5) {
                    if (input[20] <= 3382.5) {
                        var7 = 0.014952548182158087;
                    } else {
                        var7 = 0.02935282373061835;
                    }
                } else {
                    if (input[21] <= 11.5) {
                        var7 = 0.03313222482039655;
                    } else {
                        var7 = 0.044185862102460095;
                    }
                }
            } else {
                if (input[12] <= 2.5) {
                    if (input[23] <= 0.5) {
                        var7 = 0.04987744101039735;
                    } else {
                        var7 = 0.0426570426832587;
                    }
                } else {
                    if (input[0] <= 16.5) {
                        var7 = 0.05294603472330088;
                    } else {
                        var7 = 0.059992107191090105;
                    }
                }
            }
        }
    }
    var var8;
    if (input[20] <= 3351.0) {
        if (input[21] <= 9.5) {
            if (input[20] <= 2361.0) {
                if (input[22] <= 26.5) {
                    if (input[21] <= 8.5) {
                        var8 = 0.043405756230643674;
                    } else {
                        var8 = 0.05406677343126162;
                    }
                } else {
                    if (input[22] <= 29.5) {
                        var8 = 0.03779448313805568;
                    } else {
                        var8 = 0.03020813914020545;
                    }
                }
            } else {
                if (input[22] <= 25.5) {
                    if (input[0] <= 13.5) {
                        var8 = 0.030607907921052176;
                    } else {
                        var8 = 0.015637513100407095;
                    }
                } else {
                    if (input[20] <= 3104.5) {
                        var8 = 0.00756687372872937;
                    } else {
                        var8 = 0.018819824799195063;
                    }
                }
            }
        } else {
            if (input[23] <= 0.5) {
                if (input[20] <= 2355.0) {
                    if (input[22] <= 26.5) {
                        var8 = 0.04804048694391761;
                    } else {
                        var8 = 0.03310899053025966;
                    }
                } else {
                    if (input[21] <= 11.5) {
                        var8 = 0.022676656992442062;
                    } else {
                        var8 = 0.027811647462334655;
                    }
                }
            } else {
                if (input[0] <= 6.5) {
                    if (input[22] <= 29.5) {
                        var8 = 0.05524764462972973;
                    } else {
                        var8 = 0.03847633059188288;
                    }
                } else {
                    if (input[20] <= 2408.0) {
                        var8 = 0.04802311876201017;
                    } else {
                        var8 = 0.03389415742285035;
                    }
                }
            }
        }
    } else {
        if (input[0] <= 14.5) {
            if (input[22] <= 24.5) {
                if (input[0] <= 9.5) {
                    if (input[20] <= 3740.0) {
                        var8 = 0.0626087542586199;
                    } else {
                        var8 = 0.05449235497082349;
                    }
                } else {
                    if (input[19] <= 39.5) {
                        var8 = 0.05364030502319826;
                    } else {
                        var8 = 0.04329219219909995;
                    }
                }
            } else {
                if (input[12] <= 2.5) {
                    if (input[20] <= 3795.0) {
                        var8 = 0.04251788101545765;
                    } else {
                        var8 = 0.03706555607999514;
                    }
                } else {
                    if (input[20] <= 3860.0) {
                        var8 = 0.05067854528019296;
                    } else {
                        var8 = 0.04136508814384188;
                    }
                }
            }
        } else {
            if (input[22] <= 33.5) {
                if (input[0] <= 15.5) {
                    if (input[22] <= 22.5) {
                        var8 = 0.04372477046536731;
                    } else {
                        var8 = 0.03563055221004737;
                    }
                } else {
                    if (input[21] <= 10.5) {
                        var8 = 0.02722811379336726;
                    } else {
                        var8 = 0.03612628462394041;
                    }
                }
            } else {
                if (input[12] <= 1.5) {
                    if (input[23] <= 0.5) {
                        var8 = 0.049410471174661796;
                    } else {
                        var8 = 0.04248324578335545;
                    }
                } else {
                    if (input[20] <= 3404.0) {
                        var8 = 0.044818919543496816;
                    } else {
                        var8 = 0.05663122147342027;
                    }
                }
            }
        }
    }
    var var9;
    if (input[20] <= 3312.5) {
        if (input[20] <= 2365.0) {
            if (input[22] <= 26.5) {
                if (input[22] <= 24.5) {
                    if (input[21] <= 8.5) {
                        var9 = 0.0488400476620319;
                    } else {
                        var9 = 0.05571958740209284;
                    }
                } else {
                    if (input[20] <= 2310.0) {
                        var9 = 0.044487997157941;
                    } else {
                        var9 = 0.034581696725376296;
                    }
                }
            } else {
                if (input[23] <= 0.5) {
                    if (input[21] <= 8.5) {
                        var9 = 0.025406150027245798;
                    } else {
                        var9 = 0.031603946425928335;
                    }
                } else {
                    if (input[21] <= 8.5) {
                        var9 = 0.033836409159222855;
                    } else {
                        var9 = 0.04075107682321116;
                    }
                }
            }
        } else {
            if (input[21] <= 9.5) {
                if (input[22] <= 25.5) {
                    if (input[0] <= 14.5) {
                        var9 = 0.02913104319735056;
                    } else {
                        var9 = 0.01537029622129154;
                    }
                } else {
                    if (input[20] <= 3062.5) {
                        var9 = 0.005962139716052614;
                    } else {
                        var9 = 0.016874665926889614;
                    }
                }
            } else {
                if (input[0] <= 6.5) {
                    if (input[22] <= 26.5) {
                        var9 = 0.05973379429118339;
                    } else {
                        var9 = 0.0372452137180281;
                    }
                } else {
                    if (input[22] <= 27.5) {
                        var9 = 0.03260659570083475;
                    } else {
                        var9 = 0.02612948375313631;
                    }
                }
            }
        }
    } else {
        if (input[0] <= 14.5) {
            if (input[22] <= 25.5) {
                if (input[0] <= 10.5) {
                    if (input[19] <= 39.5) {
                        var9 = 0.06110289102313852;
                    } else {
                        var9 = 0.051908091237092606;
                    }
                } else {
                    if (input[19] <= 39.5) {
                        var9 = 0.050571791399773525;
                    } else {
                        var9 = 0.042311008951670316;
                    }
                }
            } else {
                if (input[21] <= 11.5) {
                    if (input[22] <= 33.5) {
                        var9 = 0.03743134720734814;
                    } else {
                        var9 = 0.0432508763355292;
                    }
                } else {
                    if (input[19] <= 36.5) {
                        var9 = 0.07486405199405934;
                    } else {
                        var9 = 0.04583794518185308;
                    }
                }
            }
        } else {
            if (input[22] <= 32.5) {
                if (input[21] <= 9.5) {
                    if (input[20] <= 3364.5) {
                        var9 = 0.01406656464336694;
                    } else {
                        var9 = 0.029411689135482262;
                    }
                } else {
                    if (input[12] <= 1.5) {
                        var9 = 0.03267579241949565;
                    } else {
                        var9 = 0.04176564557250999;
                    }
                }
            } else {
                if (input[12] <= 2.5) {
                    if (input[22] <= 38.5) {
                        var9 = 0.04362579395177924;
                    } else {
                        var9 = 0.05179803539483702;
                    }
                } else {
                    if (input[19] <= 36.5) {
                        var9 = 0.03820684284581871;
                    } else {
                        var9 = 0.05669429058409604;
                    }
                }
            }
        }
    }
    var var10;
    if (input[20] <= 3312.5) {
        if (input[20] <= 2401.0) {
            if (input[22] <= 24.5) {
                if (input[20] <= 2325.0) {
                    if (input[21] <= 8.5) {
                        var10 = 0.04767501572049699;
                    } else {
                        var10 = 0.057160744931573054;
                    }
                } else {
                    if (input[21] <= 7.5) {
                        var10 = 0.03260988264075834;
                    } else {
                        var10 = 0.04233166421585393;
                    }
                }
            } else {
                if (input[20] <= 2347.5) {
                    if (input[22] <= 29.5) {
                        var10 = 0.03954628383141632;
                    } else {
                        var10 = 0.0331172757356254;
                    }
                } else {
                    if (input[0] <= 9.5) {
                        var10 = 0.01211734812465208;
                    } else {
                        var10 = 0.023799052444965142;
                    }
                }
            }
        } else {
            if (input[21] <= 9.5) {
                if (input[22] <= 26.5) {
                    if (input[0] <= 14.5) {
                        var10 = 0.02856152882909723;
                    } else {
                        var10 = 0.012245736120910596;
                    }
                } else {
                    if (input[20] <= 3062.5) {
                        var10 = 0.00643578594070875;
                    } else {
                        var10 = 0.015312549005057898;
                    }
                }
            } else {
                if (input[23] <= 0.5) {
                    if (input[0] <= 6.5) {
                        var10 = 0.03524649968473132;
                    } else {
                        var10 = 0.02463407895429843;
                    }
                } else {
                    if (input[0] <= 6.5) {
                        var10 = 0.05181457204171759;
                    } else {
                        var10 = 0.03310440781408127;
                    }
                }
            }
        }
    } else {
        if (input[0] <= 15.5) {
            if (input[22] <= 25.5) {
                if (input[0] <= 10.5) {
                    if (input[19] <= 40.5) {
                        var10 = 0.060073233729614005;
                    } else {
                        var10 = 0.05043891276010282;
                    }
                } else {
                    if (input[19] <= 39.5) {
                        var10 = 0.049900757685892486;
                    } else {
                        var10 = 0.04105937386549558;
                    }
                }
            } else {
                if (input[12] <= 2.5) {
                    if (input[22] <= 33.5) {
                        var10 = 0.036831814164614174;
                    } else {
                        var10 = 0.04390709356775398;
                    }
                } else {
                    if (input[21] <= 8.5) {
                        var10 = 0.04069601039606524;
                    } else {
                        var10 = 0.049368321752102394;
                    }
                }
            }
        } else {
            if (input[22] <= 31.5) {
                if (input[21] <= 9.5) {
                    if (input[20] <= 3359.5) {
                        var10 = 0.011646012786806813;
                    } else {
                        var10 = 0.026507130632039147;
                    }
                } else {
                    if (input[12] <= 1.5) {
                        var10 = 0.030139857179138887;
                    } else {
                        var10 = 0.03696151959789702;
                    }
                }
            } else {
                if (input[12] <= 3.5) {
                    if (input[22] <= 33.5) {
                        var10 = 0.03817631909775305;
                    } else {
                        var10 = 0.04764297037707132;
                    }
                } else {
                    if (input[0] <= 17.5) {
                        var10 = 0.05416798078138077;
                    } else {
                        var10 = 0.06858607643967313;
                    }
                }
            }
        }
    }
    var var11;
    if (input[20] <= 3329.0) {
        if (input[20] <= 2357.5) {
            if (input[22] <= 24.5) {
                if (input[12] <= 1.5) {
                    if (input[21] <= 7.5) {
                        var11 = 0.04723881654241885;
                    } else {
                        var11 = 0.05713311688304237;
                    }
                } else {
                    if (input[26] <= 0.5) {
                        var11 = 0.03939319858834035;
                    } else {
                        var11 = 0.04824266917683688;
                    }
                }
            } else {
                if (input[22] <= 29.5) {
                    if (input[20] <= 2145.0) {
                        var11 = 0.042733290037073456;
                    } else {
                        var11 = 0.03759861332125522;
                    }
                } else {
                    if (input[22] <= 32.5) {
                        var11 = 0.025428423593960484;
                    } else {
                        var11 = 0.034176900823307446;
                    }
                }
            }
        } else {
            if (input[21] <= 9.5) {
                if (input[22] <= 28.5) {
                    if (input[0] <= 14.5) {
                        var11 = 0.028467979613545906;
                    } else {
                        var11 = 0.013926424512089782;
                    }
                } else {
                    if (input[22] <= 34.5) {
                        var11 = 0.005714755518620577;
                    } else {
                        var11 = 0.014951838862959458;
                    }
                }
            } else {
                if (input[0] <= 7.5) {
                    if (input[22] <= 28.0) {
                        var11 = 0.04546915283634395;
                    } else {
                        var11 = 0.02858262088525811;
                    }
                } else {
                    if (input[13] <= 0.5) {
                        var11 = 0.02673160427487029;
                    } else {
                        var11 = 0.03390457184717044;
                    }
                }
            }
        }
    } else {
        if (input[0] <= 15.5) {
            if (input[22] <= 24.5) {
                if (input[0] <= 10.5) {
                    if (input[19] <= 40.5) {
                        var11 = 0.06194493056666036;
                    } else {
                        var11 = 0.04949974131009354;
                    }
                } else {
                    if (input[20] <= 3351.0) {
                        var11 = 0.03358333060915032;
                    } else {
                        var11 = 0.04771930808400633;
                    }
                }
            } else {
                if (input[12] <= 2.5) {
                    if (input[21] <= 10.5) {
                        var11 = 0.038682950770892795;
                    } else {
                        var11 = 0.04495339258081287;
                    }
                } else {
                    if (input[20] <= 3857.0) {
                        var11 = 0.05182040418937718;
                    } else {
                        var11 = 0.04079016995457155;
                    }
                }
            }
        } else {
            if (input[22] <= 31.5) {
                if (input[21] <= 9.5) {
                    if (input[20] <= 3357.5) {
                        var11 = 0.010082786498231232;
                    } else {
                        var11 = 0.02655314863043416;
                    }
                } else {
                    if (input[12] <= 2.5) {
                        var11 = 0.031497301074471615;
                    } else {
                        var11 = 0.040957776129025666;
                    }
                }
            } else {
                if (input[22] <= 33.5) {
                    if (input[16] <= 0.5) {
                        var11 = 0.03457449373001179;
                    } else {
                        var11 = 0.048249406229771974;
                    }
                } else {
                    if (input[23] <= 0.5) {
                        var11 = 0.052966929573792655;
                    } else {
                        var11 = 0.04466772160070386;
                    }
                }
            }
        }
    }
    var var12;
    if (input[20] <= 3328.0) {
        if (input[20] <= 2361.0) {
            if (input[22] <= 25.5) {
                if (input[21] <= 8.5) {
                    if (input[20] <= 1457.5) {
                        var12 = 0.039879336691170775;
                    } else {
                        var12 = 0.04617773917592387;
                    }
                } else {
                    if (input[22] <= 24.5) {
                        var12 = 0.05614912200979544;
                    } else {
                        var12 = 0.04917424135403388;
                    }
                }
            } else {
                if (input[23] <= 0.5) {
                    if (input[20] <= 722.5) {
                        var12 = 0.015362112353092764;
                    } else {
                        var12 = 0.0320496743908813;
                    }
                } else {
                    if (input[21] <= 8.5) {
                        var12 = 0.03369249351509004;
                    } else {
                        var12 = 0.04038788386254306;
                    }
                }
            }
        } else {
            if (input[21] <= 9.5) {
                if (input[22] <= 23.5) {
                    if (input[0] <= 15.5) {
                        var12 = 0.029896350051686893;
                    } else {
                        var12 = 0.014206287211480725;
                    }
                } else {
                    if (input[20] <= 3102.5) {
                        var12 = 0.009142108564573006;
                    } else {
                        var12 = 0.019491956708210273;
                    }
                }
            } else {
                if (input[13] <= 0.5) {
                    if (input[23] <= 0.5) {
                        var12 = 0.02438589902590444;
                    } else {
                        var12 = 0.031177146586504185;
                    }
                } else {
                    if (input[0] <= 6.5) {
                        var12 = 0.05614742543998998;
                    } else {
                        var12 = 0.03447629916640762;
                    }
                }
            }
        }
    } else {
        if (input[0] <= 14.5) {
            if (input[22] <= 25.5) {
                if (input[0] <= 10.5) {
                    if (input[19] <= 40.5) {
                        var12 = 0.060621187854418876;
                    } else {
                        var12 = 0.048735756822097624;
                    }
                } else {
                    if (input[19] <= 40.5) {
                        var12 = 0.049438117484839846;
                    } else {
                        var12 = 0.03889006055112319;
                    }
                }
            } else {
                if (input[12] <= 2.5) {
                    if (input[22] <= 33.5) {
                        var12 = 0.037425335715296666;
                    } else {
                        var12 = 0.0432383331035744;
                    }
                } else {
                    if (input[21] <= 10.5) {
                        var12 = 0.04506077628729379;
                    } else {
                        var12 = 0.05206651025795379;
                    }
                }
            }
        } else {
            if (input[22] <= 31.5) {
                if (input[21] <= 9.5) {
                    if (input[0] <= 15.5) {
                        var12 = 0.03410336823342162;
                    } else {
                        var12 = 0.025629977384063685;
                    }
                } else {
                    if (input[12] <= 2.5) {
                        var12 = 0.03217650817763559;
                    } else {
                        var12 = 0.04259331508435582;
                    }
                }
            } else {
                if (input[12] <= 2.5) {
                    if (input[22] <= 33.5) {
                        var12 = 0.03516902534203332;
                    } else {
                        var12 = 0.046425811882576044;
                    }
                } else {
                    if (input[19] <= 40.5) {
                        var12 = 0.058699164724757315;
                    } else {
                        var12 = 0.04339191852101707;
                    }
                }
            }
        }
    }
    var var13;
    if (input[20] <= 3329.5) {
        if (input[20] <= 2378.5) {
            if (input[22] <= 25.5) {
                if (input[21] <= 8.5) {
                    if (input[22] <= 23.5) {
                        var13 = 0.04751479342825668;
                    } else {
                        var13 = 0.040581722239078376;
                    }
                } else {
                    if (input[0] <= 13.5) {
                        var13 = 0.05795621958990811;
                    } else {
                        var13 = 0.04977466648688147;
                    }
                }
            } else {
                if (input[22] <= 29.5) {
                    if (input[20] <= 2157.5) {
                        var13 = 0.04176472861067115;
                    } else {
                        var13 = 0.034833938014161715;
                    }
                } else {
                    if (input[22] <= 32.5) {
                        var13 = 0.024871802014459373;
                    } else {
                        var13 = 0.0335543788576253;
                    }
                }
            }
        } else {
            if (input[21] <= 9.5) {
                if (input[22] <= 25.5) {
                    if (input[0] <= 10.5) {
                        var13 = 0.033383431531404946;
                    } else {
                        var13 = 0.01996483362213568;
                    }
                } else {
                    if (input[0] <= 6.5) {
                        var13 = 0.026925924027344044;
                    } else {
                        var13 = 0.009891525512675962;
                    }
                }
            } else {
                if (input[0] <= 6.5) {
                    if (input[22] <= 26.5) {
                        var13 = 0.05680110828660904;
                    } else {
                        var13 = 0.037555818240938996;
                    }
                } else {
                    if (input[13] <= 0.5) {
                        var13 = 0.02765115374093402;
                    } else {
                        var13 = 0.035804999685549656;
                    }
                }
            }
        }
    } else {
        if (input[0] <= 14.5) {
            if (input[22] <= 25.5) {
                if (input[0] <= 10.5) {
                    if (input[19] <= 40.5) {
                        var13 = 0.060811060210213486;
                    } else {
                        var13 = 0.04925814361274676;
                    }
                } else {
                    if (input[19] <= 39.5) {
                        var13 = 0.050986134871047833;
                    } else {
                        var13 = 0.04305190743787768;
                    }
                }
            } else {
                if (input[21] <= 9.5) {
                    if (input[22] <= 36.5) {
                        var13 = 0.03720846322287911;
                    } else {
                        var13 = 0.04468361055570395;
                    }
                } else {
                    if (input[20] <= 3685.0) {
                        var13 = 0.047493554036475025;
                    } else {
                        var13 = 0.041797445667189;
                    }
                }
            }
        } else {
            if (input[22] <= 33.5) {
                if (input[12] <= 2.5) {
                    if (input[20] <= 3377.5) {
                        var13 = 0.020187214041986545;
                    } else {
                        var13 = 0.03015972371809678;
                    }
                } else {
                    if (input[21] <= 9.5) {
                        var13 = 0.03382231000988787;
                    } else {
                        var13 = 0.04664831411541135;
                    }
                }
            } else {
                if (input[12] <= 1.5) {
                    if (input[20] <= 3417.5) {
                        var13 = 0.03816987399759438;
                    } else {
                        var13 = 0.04765308512640545;
                    }
                } else {
                    if (input[12] <= 2.5) {
                        var13 = 0.05169793027376641;
                    } else {
                        var13 = 0.058153247241632434;
                    }
                }
            }
        }
    }
    var var14;
    if (input[20] <= 3329.5) {
        if (input[20] <= 2347.5) {
            if (input[22] <= 25.5) {
                if (input[21] <= 8.5) {
                    if (input[13] <= 0.5) {
                        var14 = 0.04419027279932818;
                    } else {
                        var14 = 0.049869086674391;
                    }
                } else {
                    if (input[22] <= 24.5) {
                        var14 = 0.05710174228688939;
                    } else {
                        var14 = 0.045264112705279955;
                    }
                }
            } else {
                if (input[22] <= 29.5) {
                    if (input[19] <= 35.0) {
                        var14 = 0.040906835555298726;
                    } else {
                        var14 = 0.036477744132856926;
                    }
                } else {
                    if (input[21] <= 8.5) {
                        var14 = 0.02846034128668099;
                    } else {
                        var14 = 0.03345879195980693;
                    }
                }
            }
        } else {
            if (input[21] <= 9.5) {
                if (input[22] <= 25.5) {
                    if (input[0] <= 14.5) {
                        var14 = 0.03014371660570829;
                    } else {
                        var14 = 0.015221017604924694;
                    }
                } else {
                    if (input[20] <= 3207.5) {
                        var14 = 0.009115682571804775;
                    } else {
                        var14 = 0.02002400192586046;
                    }
                }
            } else {
                if (input[0] <= 7.5) {
                    if (input[22] <= 26.5) {
                        var14 = 0.04981783071560523;
                    } else {
                        var14 = 0.033441314888220074;
                    }
                } else {
                    if (input[23] <= 0.5) {
                        var14 = 0.02502993585576393;
                    } else {
                        var14 = 0.03233261184023703;
                    }
                }
            }
        }
    } else {
        if (input[0] <= 15.5) {
            if (input[22] <= 24.5) {
                if (input[0] <= 8.5) {
                    if (input[19] <= 39.5) {
                        var14 = 0.06728831942555309;
                    } else {
                        var14 = 0.055426273355515907;
                    }
                } else {
                    if (input[20] <= 3385.0) {
                        var14 = 0.0350626669143514;
                    } else {
                        var14 = 0.04866083801888915;
                    }
                }
            } else {
                if (input[12] <= 2.5) {
                    if (input[22] <= 33.5) {
                        var14 = 0.037906655143030724;
                    } else {
                        var14 = 0.04445849372535395;
                    }
                } else {
                    if (input[20] <= 3860.0) {
                        var14 = 0.049685381765754634;
                    } else {
                        var14 = 0.04061182603114933;
                    }
                }
            }
        } else {
            if (input[22] <= 31.5) {
                if (input[21] <= 9.5) {
                    if (input[12] <= 1.5) {
                        var14 = 0.02470139532297831;
                    } else {
                        var14 = 0.03002428164220245;
                    }
                } else {
                    if (input[1] <= 0.5) {
                        var14 = 0.03221784213674787;
                    } else {
                        var14 = 0.038852626212864935;
                    }
                }
            } else {
                if (input[12] <= 2.5) {
                    if (input[22] <= 33.5) {
                        var14 = 0.03361168371138518;
                    } else {
                        var14 = 0.0473658234969472;
                    }
                } else {
                    if (input[21] <= 11.0) {
                        var14 = 0.0543415927049044;
                    } else {
                        var14 = 0.06023844845049261;
                    }
                }
            }
        }
    }
    var var15;
    if (input[20] <= 3329.5) {
        if (input[20] <= 2382.5) {
            if (input[22] <= 24.5) {
                if (input[21] <= 8.5) {
                    if (input[0] <= 6.5) {
                        var15 = 0.059007572882640934;
                    } else {
                        var15 = 0.04606169556722325;
                    }
                } else {
                    if (input[0] <= 13.5) {
                        var15 = 0.06008145960940197;
                    } else {
                        var15 = 0.051348720855423635;
                    }
                }
            } else {
                if (input[22] <= 29.5) {
                    if (input[21] <= 17.0) {
                        var15 = 0.03849295136461168;
                    } else {
                        var15 = 0.06045463974680646;
                    }
                } else {
                    if (input[13] <= 0.5) {
                        var15 = 0.02930434039463193;
                    } else {
                        var15 = 0.03664587566639245;
                    }
                }
            }
        } else {
            if (input[21] <= 9.5) {
                if (input[22] <= 25.5) {
                    if (input[0] <= 14.5) {
                        var15 = 0.029539720693808082;
                    } else {
                        var15 = 0.014452260102566498;
                    }
                } else {
                    if (input[20] <= 2975.0) {
                        var15 = 0.005020033054253994;
                    } else {
                        var15 = 0.015095385342195549;
                    }
                }
            } else {
                if (input[0] <= 6.5) {
                    if (input[22] <= 26.5) {
                        var15 = 0.059709453803866074;
                    } else {
                        var15 = 0.036178411728837054;
                    }
                } else {
                    if (input[13] <= 0.5) {
                        var15 = 0.026210278606974224;
                    } else {
                        var15 = 0.03478480253897571;
                    }
                }
            }
        }
    } else {
        if (input[0] <= 15.5) {
            if (input[22] <= 24.5) {
                if (input[0] <= 6.5) {
                    if (input[20] <= 3690.0) {
                        var15 = 0.06747016928315391;
                    } else {
                        var15 = 0.05805230683555848;
                    }
                } else {
                    if (input[19] <= 39.5) {
                        var15 = 0.0535043391597995;
                    } else {
                        var15 = 0.04646778377110345;
                    }
                }
            } else {
                if (input[12] <= 2.5) {
                    if (input[22] <= 33.5) {
                        var15 = 0.03824157843262795;
                    } else {
                        var15 = 0.04527938767014635;
                    }
                } else {
                    if (input[22] <= 25.5) {
                        var15 = 0.058681779308717055;
                    } else {
                        var15 = 0.048176952377830116;
                    }
                }
            }
        } else {
            if (input[22] <= 31.5) {
                if (input[21] <= 9.5) {
                    if (input[20] <= 3364.5) {
                        var15 = 0.015710154341636844;
                    } else {
                        var15 = 0.02668503646028245;
                    }
                } else {
                    if (input[12] <= 1.5) {
                        var15 = 0.03225586520787845;
                    } else {
                        var15 = 0.03940347780929795;
                    }
                }
            } else {
                if (input[23] <= 0.5) {
                    if (input[22] <= 33.5) {
                        var15 = 0.04079514930247187;
                    } else {
                        var15 = 0.054158700929739276;
                    }
                } else {
                    if (input[12] <= 1.5) {
                        var15 = 0.03966035595279583;
                    } else {
                        var15 = 0.04995739278513272;
                    }
                }
            }
        }
    }
    var var16;
    if (input[20] <= 3312.5) {
        if (input[20] <= 2357.5) {
            if (input[22] <= 26.5) {
                if (input[21] <= 8.5) {
                    if (input[22] <= 23.5) {
                        var16 = 0.04685442594429226;
                    } else {
                        var16 = 0.040717330312660845;
                    }
                } else {
                    if (input[22] <= 24.5) {
                        var16 = 0.05853019841442216;
                    } else {
                        var16 = 0.048960351232412117;
                    }
                }
            } else {
                if (input[21] <= 8.5) {
                    if (input[0] <= 9.5) {
                        var16 = 0.02480999020391128;
                    } else {
                        var16 = 0.03180325123720088;
                    }
                } else {
                    if (input[23] <= 0.5) {
                        var16 = 0.03335469074924881;
                    } else {
                        var16 = 0.04015671037487849;
                    }
                }
            }
        } else {
            if (input[21] <= 9.5) {
                if (input[22] <= 25.5) {
                    if (input[0] <= 10.5) {
                        var16 = 0.03257566409509779;
                    } else {
                        var16 = 0.020200504165448725;
                    }
                } else {
                    if (input[20] <= 2985.0) {
                        var16 = 0.0067629949815676835;
                    } else {
                        var16 = 0.015710561298808032;
                    }
                }
            } else {
                if (input[23] <= 0.5) {
                    if (input[0] <= 6.5) {
                        var16 = 0.04059947937101621;
                    } else {
                        var16 = 0.025315184197142068;
                    }
                } else {
                    if (input[22] <= 27.5) {
                        var16 = 0.03854997818204726;
                    } else {
                        var16 = 0.029787049917154088;
                    }
                }
            }
        }
    } else {
        if (input[0] <= 15.5) {
            if (input[22] <= 25.5) {
                if (input[0] <= 10.5) {
                    if (input[19] <= 40.5) {
                        var16 = 0.059644925306974926;
                    } else {
                        var16 = 0.05087588168807645;
                    }
                } else {
                    if (input[19] <= 39.5) {
                        var16 = 0.049531746358096054;
                    } else {
                        var16 = 0.04127053998950242;
                    }
                }
            } else {
                if (input[12] <= 2.5) {
                    if (input[22] <= 35.5) {
                        var16 = 0.03705136517450857;
                    } else {
                        var16 = 0.04420381093553739;
                    }
                } else {
                    if (input[22] <= 34.5) {
                        var16 = 0.04516814645506042;
                    } else {
                        var16 = 0.053823295269749674;
                    }
                }
            }
        } else {
            if (input[22] <= 32.5) {
                if (input[21] <= 9.5) {
                    if (input[20] <= 3357.5) {
                        var16 = 0.010994767038368323;
                    } else {
                        var16 = 0.026409035551284273;
                    }
                } else {
                    if (input[20] <= 3380.0) {
                        var16 = 0.02621975673456473;
                    } else {
                        var16 = 0.03562166247441507;
                    }
                }
            } else {
                if (input[21] <= 6.5) {
                    if (input[22] <= 36.5) {
                        var16 = 0.03302915331899221;
                    } else {
                        var16 = 0.046429110113086126;
                    }
                } else {
                    if (input[12] <= 1.5) {
                        var16 = 0.04752330506736998;
                    } else {
                        var16 = 0.054506635294268184;
                    }
                }
            }
        }
    }
    var var17;
    if (input[20] <= 3329.5) {
        if (input[20] <= 2361.0) {
            if (input[22] <= 25.5) {
                if (input[21] <= 8.5) {
                    if (input[22] <= 23.5) {
                        var17 = 0.04931067177243968;
                    } else {
                        var17 = 0.03985508547443341;
                    }
                } else {
                    if (input[22] <= 23.5) {
                        var17 = 0.05815368306543666;
                    } else {
                        var17 = 0.04775239584101847;
                    }
                }
            } else {
                if (input[22] <= 29.5) {
                    if (input[0] <= 7.5) {
                        var17 = 0.050771839153582445;
                    } else {
                        var17 = 0.03742927959047955;
                    }
                } else {
                    if (input[21] <= 9.5) {
                        var17 = 0.030441065194246573;
                    } else {
                        var17 = 0.037704055841265724;
                    }
                }
            }
        } else {
            if (input[21] <= 9.5) {
                if (input[22] <= 25.5) {
                    if (input[0] <= 7.5) {
                        var17 = 0.0390155455810945;
                    } else {
                        var17 = 0.022015135078172793;
                    }
                } else {
                    if (input[20] <= 3001.0) {
                        var17 = 0.006812755999647878;
                    } else {
                        var17 = 0.016408365454388275;
                    }
                }
            } else {
                if (input[13] <= 0.5) {
                    if (input[23] <= 0.5) {
                        var17 = 0.023019590436374398;
                    } else {
                        var17 = 0.030005581868659495;
                    }
                } else {
                    if (input[0] <= 6.5) {
                        var17 = 0.06342236842261964;
                    } else {
                        var17 = 0.034609906091087564;
                    }
                }
            }
        }
    } else {
        if (input[0] <= 15.5) {
            if (input[22] <= 25.5) {
                if (input[0] <= 10.5) {
                    if (input[19] <= 40.5) {
                        var17 = 0.05944119485376477;
                    } else {
                        var17 = 0.048037516355922884;
                    }
                } else {
                    if (input[12] <= 2.5) {
                        var17 = 0.04295295769316067;
                    } else {
                        var17 = 0.05414425216936686;
                    }
                }
            } else {
                if (input[12] <= 2.5) {
                    if (input[22] <= 34.5) {
                        var17 = 0.03625829441063519;
                    } else {
                        var17 = 0.04453647860639816;
                    }
                } else {
                    if (input[20] <= 3777.5) {
                        var17 = 0.05023844167276178;
                    } else {
                        var17 = 0.04060838234007575;
                    }
                }
            }
        } else {
            if (input[22] <= 31.5) {
                if (input[12] <= 2.5) {
                    if (input[20] <= 3360.0) {
                        var17 = 0.015501158911292544;
                    } else {
                        var17 = 0.02804424797996988;
                    }
                } else {
                    if (input[0] <= 17.5) {
                        var17 = 0.03893034853021087;
                    } else {
                        var17 = 0.02498437413630001;
                    }
                }
            } else {
                if (input[12] <= 1.5) {
                    if (input[22] <= 32.5) {
                        var17 = 0.032851320137884304;
                    } else {
                        var17 = 0.04557959951505652;
                    }
                } else {
                    if (input[19] <= 40.5) {
                        var17 = 0.05528931140476555;
                    } else {
                        var17 = 0.04108828120769837;
                    }
                }
            }
        }
    }
    var var18;
    if (input[20] <= 3329.5) {
        if (input[20] <= 2347.5) {
            if (input[22] <= 25.5) {
                if (input[21] <= 8.5) {
                    if (input[23] <= 0.5) {
                        var18 = 0.0421107871019979;
                    } else {
                        var18 = 0.048301376955972725;
                    }
                } else {
                    if (input[22] <= 24.5) {
                        var18 = 0.057168296548193956;
                    } else {
                        var18 = 0.04845819927307737;
                    }
                }
            } else {
                if (input[22] <= 29.5) {
                    if (input[20] <= 2145.0) {
                        var18 = 0.04150412720411443;
                    } else {
                        var18 = 0.037480192573992856;
                    }
                } else {
                    if (input[22] <= 32.5) {
                        var18 = 0.026904923200300277;
                    } else {
                        var18 = 0.03305646850870098;
                    }
                }
            }
        } else {
            if (input[21] <= 9.5) {
                if (input[22] <= 25.5) {
                    if (input[0] <= 12.5) {
                        var18 = 0.031064071636185114;
                    } else {
                        var18 = 0.01798561753208863;
                    }
                } else {
                    if (input[20] <= 2988.0) {
                        var18 = 0.006348612417477642;
                    } else {
                        var18 = 0.017029175084806492;
                    }
                }
            } else {
                if (input[0] <= 7.5) {
                    if (input[16] <= 0.5) {
                        var18 = 0.051582002150573944;
                    } else {
                        var18 = 0.03844545215050767;
                    }
                } else {
                    if (input[23] <= 0.5) {
                        var18 = 0.02519598664584718;
                    } else {
                        var18 = 0.0319294074989227;
                    }
                }
            }
        }
    } else {
        if (input[0] <= 15.5) {
            if (input[22] <= 24.5) {
                if (input[0] <= 10.5) {
                    if (input[19] <= 40.5) {
                        var18 = 0.06131696607711332;
                    } else {
                        var18 = 0.048847890917477384;
                    }
                } else {
                    if (input[19] <= 39.5) {
                        var18 = 0.05233309472257573;
                    } else {
                        var18 = 0.042832084179382925;
                    }
                }
            } else {
                if (input[12] <= 2.5) {
                    if (input[22] <= 33.5) {
                        var18 = 0.037781072414240495;
                    } else {
                        var18 = 0.04439356308330964;
                    }
                } else {
                    if (input[22] <= 34.5) {
                        var18 = 0.04549013325545483;
                    } else {
                        var18 = 0.05329087731767592;
                    }
                }
            }
        } else {
            if (input[22] <= 31.5) {
                if (input[21] <= 9.5) {
                    if (input[20] <= 3362.5) {
                        var18 = 0.00875411111728214;
                    } else {
                        var18 = 0.02693056821830645;
                    }
                } else {
                    if (input[22] <= 18.5) {
                        var18 = 0.019493913277766357;
                    } else {
                        var18 = 0.035962993381853554;
                    }
                }
            } else {
                if (input[21] <= 11.5) {
                    if (input[22] <= 34.0) {
                        var18 = 0.03691583268104962;
                    } else {
                        var18 = 0.046345050898062345;
                    }
                } else {
                    if (input[20] <= 3369.0) {
                        var18 = 0.03369039683024422;
                    } else {
                        var18 = 0.053051816480937486;
                    }
                }
            }
        }
    }
    var var19;
    if (input[20] <= 3312.5) {
        if (input[20] <= 2378.5) {
            if (input[22] <= 24.5) {
                if (input[21] <= 8.5) {
                    if (input[20] <= 1467.5) {
                        var19 = 0.04155404082957709;
                    } else {
                        var19 = 0.047353235938073376;
                    }
                } else {
                    if (input[12] <= 1.5) {
                        var19 = 0.05670906075821791;
                    } else {
                        var19 = 0.050334634525963796;
                    }
                }
            } else {
                if (input[22] <= 30.5) {
                    if (input[20] <= 2130.0) {
                        var19 = 0.042622619269903024;
                    } else {
                        var19 = 0.03611017222749829;
                    }
                } else {
                    if (input[22] <= 33.5) {
                        var19 = 0.025935470181630053;
                    } else {
                        var19 = 0.03421497206455466;
                    }
                }
            }
        } else {
            if (input[21] <= 9.5) {
                if (input[22] <= 26.5) {
                    if (input[0] <= 10.5) {
                        var19 = 0.030675671891878465;
                    } else {
                        var19 = 0.01801373700068393;
                    }
                } else {
                    if (input[20] <= 2985.0) {
                        var19 = 0.004228585259862404;
                    } else {
                        var19 = 0.01363697694284851;
                    }
                }
            } else {
                if (input[0] <= 6.5) {
                    if (input[22] <= 29.5) {
                        var19 = 0.05469002507744318;
                    } else {
                        var19 = 0.03239812773426871;
                    }
                } else {
                    if (input[23] <= 0.5) {
                        var19 = 0.02516169809431384;
                    } else {
                        var19 = 0.032394835054654306;
                    }
                }
            }
        }
    } else {
        if (input[0] <= 15.5) {
            if (input[22] <= 25.5) {
                if (input[0] <= 9.5) {
                    if (input[19] <= 40.5) {
                        var19 = 0.06150472739294742;
                    } else {
                        var19 = 0.05134148679133518;
                    }
                } else {
                    if (input[19] <= 39.5) {
                        var19 = 0.05032032616568784;
                    } else {
                        var19 = 0.04211881182015623;
                    }
                }
            } else {
                if (input[20] <= 3777.5) {
                    if (input[12] <= 2.5) {
                        var19 = 0.04129146057754671;
                    } else {
                        var19 = 0.048780523086324246;
                    }
                } else {
                    if (input[22] <= 34.5) {
                        var19 = 0.03436272549183249;
                    } else {
                        var19 = 0.0432510173570854;
                    }
                }
            }
        } else {
            if (input[22] <= 31.5) {
                if (input[12] <= 2.5) {
                    if (input[20] <= 3364.5) {
                        var19 = 0.017313282802783873;
                    } else {
                        var19 = 0.02728551554047884;
                    }
                } else {
                    if (input[1] <= 0.5) {
                        var19 = 0.030811121986824692;
                    } else {
                        var19 = 0.04071245631253505;
                    }
                }
            } else {
                if (input[21] <= 9.5) {
                    if (input[22] <= 35.5) {
                        var19 = 0.03668864615520283;
                    } else {
                        var19 = 0.04697992106055676;
                    }
                } else {
                    if (input[15] <= 0.5) {
                        var19 = 0.05222322082896316;
                    } else {
                        var19 = 0.03115430098830115;
                    }
                }
            }
        }
    }
    var var20;
    if (input[20] <= 3329.0) {
        if (input[20] <= 2347.5) {
            if (input[22] <= 25.5) {
                if (input[21] <= 7.5) {
                    if (input[20] <= 2155.0) {
                        var20 = 0.04731951322812098;
                    } else {
                        var20 = 0.04050678549300477;
                    }
                } else {
                    if (input[22] <= 21.5) {
                        var20 = 0.05842144797869399;
                    } else {
                        var20 = 0.05059624933082434;
                    }
                }
            } else {
                if (input[22] <= 30.5) {
                    if (input[0] <= 11.5) {
                        var20 = 0.03575460581351303;
                    } else {
                        var20 = 0.04140810685558437;
                    }
                } else {
                    if (input[22] <= 32.5) {
                        var20 = 0.02467818984816692;
                    } else {
                        var20 = 0.033340952579243376;
                    }
                }
            }
        } else {
            if (input[21] <= 9.5) {
                if (input[22] <= 25.5) {
                    if (input[0] <= 10.5) {
                        var20 = 0.032602472675009715;
                    } else {
                        var20 = 0.020400720706434103;
                    }
                } else {
                    if (input[20] <= 3065.0) {
                        var20 = 0.00690977439882925;
                    } else {
                        var20 = 0.017784688852404598;
                    }
                }
            } else {
                if (input[23] <= 0.5) {
                    if (input[12] <= 2.5) {
                        var20 = 0.027955338149847117;
                    } else {
                        var20 = 0.020056341999012375;
                    }
                } else {
                    if (input[13] <= 0.5) {
                        var20 = 0.03136657988139169;
                    } else {
                        var20 = 0.039633050324815525;
                    }
                }
            }
        }
    } else {
        if (input[0] <= 14.5) {
            if (input[22] <= 25.5) {
                if (input[0] <= 10.5) {
                    if (input[19] <= 40.5) {
                        var20 = 0.06076323578900725;
                    } else {
                        var20 = 0.047562205394031117;
                    }
                } else {
                    if (input[20] <= 3447.5) {
                        var20 = 0.03936606371701242;
                    } else {
                        var20 = 0.04836423829383141;
                    }
                }
            } else {
                if (input[12] <= 2.5) {
                    if (input[22] <= 33.5) {
                        var20 = 0.03759148204784183;
                    } else {
                        var20 = 0.043245643429464777;
                    }
                } else {
                    if (input[21] <= 10.5) {
                        var20 = 0.04422297625840435;
                    } else {
                        var20 = 0.05254608526873158;
                    }
                }
            }
        } else {
            if (input[22] <= 31.5) {
                if (input[21] <= 9.5) {
                    if (input[22] <= 21.5) {
                        var20 = 0.0322799172512444;
                    } else {
                        var20 = 0.026554607126523907;
                    }
                } else {
                    if (input[12] <= 2.5) {
                        var20 = 0.031227853252271363;
                    } else {
                        var20 = 0.04562159823406419;
                    }
                }
            } else {
                if (input[12] <= 2.5) {
                    if (input[22] <= 33.5) {
                        var20 = 0.034560827916032585;
                    } else {
                        var20 = 0.04492720789312819;
                    }
                } else {
                    if (input[19] <= 36.5) {
                        var20 = 0.0375507909876022;
                    } else {
                        var20 = 0.05469345319210181;
                    }
                }
            }
        }
    }
    var var21;
    if (input[20] <= 3329.5) {
        if (input[20] <= 2407.5) {
            if (input[22] <= 23.5) {
                if (input[20] <= 2310.0) {
                    if (input[21] <= 8.5) {
                        var21 = 0.05097695015670842;
                    } else {
                        var21 = 0.05856172917796139;
                    }
                } else {
                    if (input[0] <= 10.5) {
                        var21 = 0.04734360829408866;
                    } else {
                        var21 = 0.03785568835093474;
                    }
                }
            } else {
                if (input[20] <= 2358.5) {
                    if (input[22] <= 30.5) {
                        var21 = 0.04099572381484156;
                    } else {
                        var21 = 0.03209438726560344;
                    }
                } else {
                    if (input[0] <= 9.5) {
                        var21 = 0.009580825149303682;
                    } else {
                        var21 = 0.01958283341957569;
                    }
                }
            }
        } else {
            if (input[21] <= 9.5) {
                if (input[22] <= 25.5) {
                    if (input[0] <= 14.5) {
                        var21 = 0.028767376929569936;
                    } else {
                        var21 = 0.015225292837457112;
                    }
                } else {
                    if (input[20] <= 2977.5) {
                        var21 = 0.00660248743617669;
                    } else {
                        var21 = 0.016201608221542443;
                    }
                }
            } else {
                if (input[23] <= 0.5) {
                    if (input[21] <= 15.5) {
                        var21 = 0.023841643576181838;
                    } else {
                        var21 = 0.031590872228558595;
                    }
                } else {
                    if (input[0] <= 6.5) {
                        var21 = 0.05039934881535604;
                    } else {
                        var21 = 0.033303957321332046;
                    }
                }
            }
        }
    } else {
        if (input[0] <= 15.5) {
            if (input[22] <= 25.5) {
                if (input[0] <= 10.5) {
                    if (input[19] <= 40.5) {
                        var21 = 0.059819628159334316;
                    } else {
                        var21 = 0.04832099436785483;
                    }
                } else {
                    if (input[20] <= 3730.0) {
                        var21 = 0.04918479361519543;
                    } else {
                        var21 = 0.0403061631769034;
                    }
                }
            } else {
                if (input[22] <= 33.5) {
                    if (input[21] <= 9.5) {
                        var21 = 0.03502861548898498;
                    } else {
                        var21 = 0.04262050371033767;
                    }
                } else {
                    if (input[0] <= 12.5) {
                        var21 = 0.04255603720084532;
                    } else {
                        var21 = 0.051232958592374214;
                    }
                }
            }
        } else {
            if (input[22] <= 31.5) {
                if (input[19] <= 39.5) {
                    if (input[20] <= 3392.5) {
                        var21 = 0.022281736087677122;
                    } else {
                        var21 = 0.031878201467334694;
                    }
                } else {
                    if (input[21] <= 9.5) {
                        var21 = 0.02371060388429663;
                    } else {
                        var21 = 0.03061043819530305;
                    }
                }
            } else {
                if (input[12] <= 1.5) {
                    if (input[22] <= 32.5) {
                        var21 = 0.031135910985292916;
                    } else {
                        var21 = 0.04660210406623656;
                    }
                } else {
                    if (input[21] <= 9.5) {
                        var21 = 0.04853919957377012;
                    } else {
                        var21 = 0.056799472174057695;
                    }
                }
            }
        }
    }
    var var22;
    if (input[20] <= 3329.5) {
        if (input[20] <= 2361.0) {
            if (input[22] <= 26.5) {
                if (input[0] <= 13.5) {
                    if (input[21] <= 8.5) {
                        var22 = 0.04876874621572416;
                    } else {
                        var22 = 0.05723735660639487;
                    }
                } else {
                    if (input[20] <= 2310.0) {
                        var22 = 0.047918470149082834;
                    } else {
                        var22 = 0.036387459272178804;
                    }
                }
            } else {
                if (input[23] <= 0.5) {
                    if (input[16] <= 0.5) {
                        var22 = 0.036767833054027706;
                    } else {
                        var22 = 0.026891191664694888;
                    }
                } else {
                    if (input[21] <= 8.5) {
                        var22 = 0.030996084877784876;
                    } else {
                        var22 = 0.03821146721936462;
                    }
                }
            }
        } else {
            if (input[21] <= 9.5) {
                if (input[22] <= 25.5) {
                    if (input[0] <= 9.5) {
                        var22 = 0.033712461823044236;
                    } else {
                        var22 = 0.021637965610719522;
                    }
                } else {
                    if (input[20] <= 3001.0) {
                        var22 = 0.008197728417377767;
                    } else {
                        var22 = 0.018411219157321045;
                    }
                }
            } else {
                if (input[0] <= 7.5) {
                    if (input[16] <= 0.5) {
                        var22 = 0.05457904389134729;
                    } else {
                        var22 = 0.03787890440357038;
                    }
                } else {
                    if (input[23] <= 0.5) {
                        var22 = 0.024770015221130672;
                    } else {
                        var22 = 0.03212126108911114;
                    }
                }
            }
        }
    } else {
        if (input[0] <= 15.5) {
            if (input[22] <= 25.5) {
                if (input[0] <= 10.5) {
                    if (input[19] <= 40.5) {
                        var22 = 0.05993073663083593;
                    } else {
                        var22 = 0.04834166546168184;
                    }
                } else {
                    if (input[19] <= 39.5) {
                        var22 = 0.05033970513482694;
                    } else {
                        var22 = 0.03997871550159664;
                    }
                }
            } else {
                if (input[21] <= 9.5) {
                    if (input[22] <= 33.5) {
                        var22 = 0.03525976523243043;
                    } else {
                        var22 = 0.04282643825770139;
                    }
                } else {
                    if (input[22] <= 33.5) {
                        var22 = 0.04316346037474311;
                    } else {
                        var22 = 0.05089796346075121;
                    }
                }
            }
        } else {
            if (input[22] <= 33.5) {
                if (input[12] <= 2.5) {
                    if (input[20] <= 3392.5) {
                        var22 = 0.017715347441030597;
                    } else {
                        var22 = 0.028519548503746196;
                    }
                } else {
                    if (input[21] <= 9.5) {
                        var22 = 0.032192670326254155;
                    } else {
                        var22 = 0.042715998089530444;
                    }
                }
            } else {
